{"labels": ["A", "B", "C", "D", "E", "F", "G", "H", "I", "J", "K", "L", "M", "N", "O", "P", "Q", "R", "S", "T", "U", "V", "W", "X", "Y", "Z"], "layers": [{"W": [[-2.112324703979121e-37, 1.4560376664964303e-37, 1.1734047345522863e-37, 1.8385600855482416e-37, -6.5099568963984925e-37, -6.898363647961697e-37, -3.498980608286638e-38, 2.3015721915598532e-38, -7.644125722365193e-38, -4.0715329999816605e-37, -3.205390194974737e-37, 3.3123554546001045e-37, 4.071909669008871e-37, 4.633674753021644e-37, -1.8211575280756074e-37, -9.67449733537225e-38, -1.9283996842775257e-37, -1.8584296009413503e-37, 6.344737305429722e-37, 4.797440580911585e-37, -7.379235471056944e-37, -2.5719519455241866e-37, 4.1912195833778e-37, -9.959227730857795e-37, -2.870683666849757e-37, -5.114274836318689e-37, 7.204943985934012e-37, 7.797288317139158e-37, 9.784150173348315e-37, -2.4695040237322936e-37, -4.176216497291599e-37, -4.520878970745914e-37, 2.9944873772379602e-37, 6.05130955484356e-38, 3.2200480011193287e-37, -1.4143711216465647e-37, -2.6038192662649673e-37, 4.7868911576566395e-37, 6.91050360102559e-37, -1.5702008918655874e-38, 2.535656970051648e-37, -7.691251501824313e-37, -3.1793959963576343e-37, -6.627966854208037e-37, -2.8770034108199847e-37, -8.766980576634811e-37, -9.503034903692973e-37, 1.983321615768887e-37, 5.759015622870852e-37, -1.3473565449274661e-37, 3.2125016165253695e-37, -2.4145323181194796e-37, -1.2313666989840923e-37, -4.260818154465114e-37, 1.0898922786491217e-37, -9.750678646125575e-37, 7.331381016396374e-37, 4.441809864117307e-37, -1.2946441808546523e-37, -1.7710474313029834e-37, 7.211626722258438e-37, 6.447008775718987e-38, 3.67326424613817e-37, -1.4342576768289996e-37, 8.980587788303858e-37, 1.2738230156484513e-37, -4.0276506098961274e-37, -5.11855585917914e-37, 9.29724536800058e-37, 5.308784928308163e-37, -1.712903970694078e-37, 7.195312469225137e-37, -5.1795466461636764e-37, 5.843526700111633e-38, -3.913377298519613e-37, -5.709917936212733e-38, -9.822834306650589e-38, 6.7523981221005035e-37, -2.4690838584007504e-37, 2.7555404293865896e-37, 1.350276850927119e-37, 3.7924663165772847e-38, 1.2916541462434146e-37, 2.816570452728127e-37, -9.409828152909733e-37, -1.5343720443142219e-37, -6.349991838359309e-38, 7.616698836198164e-37, -4.134815190215061e-37, 4.948148997607071e-37, 3.132048699637273e-37, -7.1928591879776744e-37, 4.478199679469911e-37, -1.2723343882638298e-37, -1.2071928431240863e-37, -9.643602403661833e-37, -1.0538655677545935e-37, 9.362032440680787e-37, -4.281763194455561e-37, 3.904588802966876e-37, -3.4958473049204076e-37, 9.453021328358572e-37, -7.584377943170451e-37, 6.140478211868125e-37, -6.523991853401661e-37, -8.731465171523946e-37, -7.121295660131746e-37, 1.0490555266978907e-36, 1.6974816161073505e-37, 1.00251744060432e-36, 5.6384546292329736e-37, -4.970549145922873e-37, -5.916577173784026e-37, -1.90828690347101e-37, 9.303631701673832e-37, -2.4586218761699785e-38, -3.825505347041995e-37, -7.273979459246421e-38, -3.638421912705689e-37, -2.2372835327174364e-37, -1.8446851050838668e-37, -5.274681583633828e-37, -6.591173016482199e-37, 4.378711075826918e-37, 1.5368293613012619e-37, 7.822874906058958e-37, 2.1632133621785238e-37, 3.029033308019267e-37], [-5.1562021347867965e-37, 6.568820848625815e-37, -2.360519324864018e-37, 3.5301221685267755e-37, 2.1991821153685675e-37, 8.393338354107242e-37, -1.2840226748067017e-38, -2.766567190950423e-37, 3.3630329090949644e-37, -1.9626021287792572e-37, -9.985305783175002e-37, 3.285928983432727e-37, 2.8201062090133113e-37, -6.453423807984789e-37, -6.215560007794403e-37, 2.0746391920144636e-38, 6.7289975587850505e-37, -2.8555947091936616e-37, -6.448980458710231e-37, 5.976383695410392e-37, -1.2927900948305349e-37, 7.506097599421444e-37, -6.452099188572432e-37, -4.520101418254029e-37, -7.0262046673814354e-37, -6.165337470833002e-37, 4.796037040369718e-37, -7.62480349810031e-37, 1.846039095712036e-37, 3.960712488021242e-37, -2.6516717030557483e-37, -1.2415810437502488e-37, -5.768065544665093e-37, 6.14341533344935e-37, 9.857787174505936e-37, -6.870628251924763e-37, 6.707775398010298e-37, 4.866511366945296e-37, -4.926817871863733e-37, -1.0998345473054448e-37, -2.3757233010980652e-37, 7.545199880185472e-37, 4.0401914464246945e-37, -4.324883278176502e-37, 9.473017969548364e-37, 2.1680824819784825e-37, -7.50415618447703e-38, -2.9573953431989137e-37, 7.096755224593473e-37, 9.267300180337344e-37, -2.293808549651985e-37, -2.2068764770803593e-37, 7.717355562241019e-37, 3.3481932704616417e-37, -9.26303574885071e-37, -2.2440075232686526e-37, -3.149818957826946e-37, -1.0007038689214032e-36, 1.5637256598177581e-37, 4.8804404978884386e-37, -9.390068275108473e-37, -6.562104481138245e-37, 5.967456191049994e-37, -5.313577593263908e-37, -4.159743505168259e-37, 8.526080106620295e-37, 9.75798602525346e-37, 2.3842328822044627e-37, -3.2662805368853502e-37, -4.7291549704334056e-37, -3.5442885112739594e-37, -3.1304669139307432e-37, 2.0683669800881457e-37, 8.523090072009057e-37, -5.45592709646388e-37, -5.431878124323015e-37, -2.8737743707426718e-37, -4.138782322219503e-37, 4.717410968263592e-37, -7.169643371851758e-37, -5.457870529278083e-37, -5.507495776782051e-37, 5.9260997255243145e-37, 5.082860191033824e-37, -3.104120484931648e-37, 3.1158097804094142e-37, -6.4442205280866125e-37, -2.95413334458172e-37, -1.9747259388848412e-37, 5.230736863792602e-37, -2.7458629500880853e-37, 8.567128062276069e-37, -1.0186607576457488e-36, -6.7466395701392685e-37, 6.459230788820951e-37, -6.455009405223142e-37, -1.3799347163532295e-37, -1.001286898765664e-36, 3.6539747562054144e-37, 4.017691749865987e-37, -3.775352762899933e-37, 5.077756325715122e-37, -8.222195194270078e-37, 5.5779790716678e-37, -2.6865348878093783e-37, -6.968577893542296e-37, 4.085653604346969e-37, -6.218122254010452e-37, 9.88326165954859e-37, -3.3537890475932607e-37, -3.0086472179602696e-38, -2.726356202841421e-37, -3.259954963513511e-38, 2.286953397564508e-37, -7.05159664397051e-37, -3.884228048384114e-37, -4.836754962211174e-37, -4.885530013910866e-37, 8.910529142904737e-37, 3.7103648000718794e-37, 2.3857637727507683e-37, 8.567889471809644e-37, 2.654650303071517e-37, 7.855274720216182e-37, 1.0271288154760514e-36, -7.316353715872709e-37, -3.739391408565781e-37, 2.3460834843961753e-37], [-1.9724378987522917e-37, 1.0759659503029073e-37, -6.7411236109681775e-37, 5.11399278296379e-37, -7.605131509738733e-37, 4.396564739301188e-37, -2.5142848142892746e-37, 2.9334844830346922e-37, -1.986284297034101e-37, 3.060705792221568e-37, 6.40476803481038e-38, -1.9083985589326475e-37, -4.198928294385867e-37, 3.1560909455455097e-37, -1.0960564224378708e-37, -8.559687615846012e-38, 2.396303891383911e-38, -6.5146042747294565e-37, 7.446140858599702e-37, 7.039793002538055e-37, -1.021460036299635e-36, -3.1072163456029116e-37, -2.2378135598485826e-37, -8.618861759501398e-37, -4.05179240404727e-37, 9.38390345869646e-37, -2.1822221440029056e-37, 6.023552971173845e-37, -2.260111693636182e-38, -2.678745686217521e-37, 9.712416247609125e-37, 1.548884900145664e-37, 7.301588738421566e-37, 9.243208608723163e-37, -3.857180521737348e-37, -2.3899331401495817e-37, 2.781190469100854e-37, -4.587702298250601e-37, 1.5489320958779425e-37, 7.625787770141652e-39, -1.6359936484276719e-37, 5.141283799231717e-37, 6.043141105835318e-38, 7.195018308651506e-37, -4.427044326146778e-38, -8.096140213821029e-37, 2.343158245825928e-38, 8.674697561799253e-37, -2.05532055507365e-37, 3.7521943439591152e-37, 6.249867829940652e-37, -3.167449310377941e-37, -8.087740494514234e-37, 5.072907833028558e-38, 6.885444797159393e-38, 9.589198840498395e-37, -4.357313136172801e-37, 2.249927729020732e-37, 5.601475147486582e-37, 1.5115387266171276e-37, -8.653802295930259e-37, -3.873785348020211e-37, -6.0425550267655984e-37, -7.96529705257132e-37, 6.575654252561126e-37, -6.540396686367696e-37, -9.720759466561838e-37, 9.51094943741948e-37, 1.794409318780821e-37, 2.6762872481917095e-37, 6.695634548115388e-37, -6.928785501310557e-37, -1.7276115509601227e-38, -6.9528138463380275e-37, -6.096980113873449e-38, 7.010610121239412e-37, -4.664636947058348e-37, 2.7315845034637554e-37, -2.1582693569886315e-37, -2.3040987887429694e-37, 6.490371003814563e-37, -1.7878231038946172e-37, 2.207491478950382e-37, 4.299340633976543e-37, -5.930598678321937e-37, 3.859134268108248e-37, -3.6305703813581385e-37, 3.2085815681493287e-37, 1.383869898752685e-37, -5.652689131137462e-37, 8.115115364482267e-37, -1.973097742173173e-37, -2.838204258939759e-37, 3.089629040940741e-37, 5.108781746338536e-37, 5.2350927720429864e-37, -7.493303856546035e-37, -5.765173713050235e-37, 4.3553315880403684e-37, 1.7680936062440638e-37, -3.222583790820371e-37, 4.290073230660639e-37, -4.872402201481563e-38, -4.212295112281246e-37, 7.378565089871611e-37, 5.945053576448895e-38, -3.4187433792581704e-38, 4.0256179423957164e-37, -3.433110051633814e-38, 9.205135441551335e-37, 2.685103993921487e-37, -6.325524942964443e-37, 4.083363546344631e-37, 4.029078813290967e-37, 5.04324671659001e-37, -3.5886195410758307e-37, 5.711477749559343e-37, 8.15382348801425e-37, 5.167314319505015e-37, -6.002846488233965e-37, 7.0396616167940395e-37, -3.939988068461018e-37, 8.495726188220985e-38, 7.618411783440955e-37, 3.0371429024920076e-37, 1.7704491329106552e-37, 3.2488118381252e-37, -1.814130857056097e-37], [0.2360794097185135, 0.4080229699611664, -0.11593049019575119, -0.2519586384296417, 0.019167877733707428, 0.23420076072216034, 0.3484131395816803, -0.1418730616569519, -0.1725865602493286, 0.4348240792751312, 0.22956134378910065, 0.14109013974666595, 0.035996049642562866, 0.03385213762521744, 0.07585874944925308, 0.5493291616439819, -0.13069984316825867, 0.32104024291038513, -0.23473307490348816, 0.20199446380138397, -0.034244224429130554, -0.03605823218822479, 0.18346334993839264, -0.10317402333021164, -0.0010558367939665914, -0.010791148990392685, -0.23088188469409943, 0.07978243380784988, 0.14289458096027374, 0.16514840722084045, -0.1858569085597992, -0.07565575838088989, -0.35171663761138916, 0.03396180644631386, 0.09936606138944626, 0.07146868854761124, 0.3133777379989624, -0.11834324896335602, 0.019022583961486816, 0.11475427448749542, 0.06920445710420609, -0.08029163628816605, -0.20686598122119904, 0.1313931941986084, 0.00403560558333993, -0.0424002930521965, -0.018216572701931, -0.008673935197293758, 0.21321497857570648, -0.029775939881801605, -0.26522719860076904, 0.23816394805908203, -0.10595090687274933, 0.23237913846969604, 0.05697958171367645, -0.0739036574959755, -0.16000549495220184, 0.014503753744065762, -0.05221128091216087, -0.2384689301252365, 0.22344502806663513, 0.6164200305938721, 0.07020696252584457, 0.30207496881484985, 0.07165896892547607, -0.41147586703300476, -0.019940437749028206, -0.04999284818768501, -0.003686585696414113, 0.03650536388158798, -0.23561346530914307, 0.17091061174869537, -0.5434638857841492, 0.18233062326908112, -0.20102407038211823, -0.3389216661453247, -0.4008866250514984, 0.005855187773704529, 0.24945597350597382, -0.09110450744628906, 0.5458825826644897, -0.17819711565971375, 0.011414671316742897, 0.10084196925163269, -0.16324855387210846, 0.14369574189186096, -0.025794662535190582, 0.04753664880990982, -0.48388469219207764, 0.3540329039096832, -0.060190413147211075, 0.1356828212738037, -0.05427044630050659, 0.153553768992424, -0.34714770317077637, 0.08233809471130371, 0.10318055748939514, 0.03846007212996483, 0.039848264306783676, 0.16898341476917267, 0.06731729209423065, -0.16776573657989502, -0.1385965496301651, -0.14418108761310577, 0.34185484051704407, -0.10341984778642654, 0.042633578181266785, 0.12611910700798035, -0.05343041568994522, 0.009183746762573719, -0.05908278003334999, -0.24520376324653625, -0.06873557716608047, -0.11172860860824585, 0.15993517637252808, 0.15103869140148163, 0.051058460026979446, 0.14758960902690887, -0.154769167304039, 0.1675453931093216, 0.07851296663284302, -0.06664460897445679, 0.30990156531333923, -0.14070643484592438, 0.022680694237351418, -0.23231640458106995, 0.07159905880689621, -0.22685374319553375], [0.28162556886672974, 0.31998488306999207, -0.17359559237957, -0.3120039105415344, -0.2778249680995941, -0.010958804748952389, 0.4288986027240753, -0.1890808492898941, 0.27819862961769104, -0.2582787275314331, 0.2221960574388504, -0.20516550540924072, 0.23834621906280518, 0.08799947798252106, 0.1380254030227661, 0.16768783330917358, -0.23967832326889038, 0.0173359178006649, 0.10136670619249344, 0.17268095910549164, 0.18035736680030823, 0.11479201167821884, 0.1272413283586502, 0.0668628141283989, -0.06406155228614807, 0.08519373834133148, 0.15116405487060547, -0.07020331174135208, 0.01647987775504589, -0.020789144560694695, -0.3550361096858978, 0.05400456488132477, -0.35744643211364746, -0.11227387934923172, -0.117097869515419, 0.08629351854324341, -0.094949871301651, 0.029635503888130188, 0.16089817881584167, -0.2353609949350357, 0.23405280709266663, -0.01941170170903206, 0.15721550583839417, -0.4012358486652374, -0.16946519911289215, -0.16448445618152618, -0.05504206195473671, 0.137492373585701, -0.18468458950519562, -0.20563560724258423, -0.13828518986701965, -0.1749255359172821, -0.13567180931568146, -0.24853026866912842, 0.20088088512420654, 0.16596919298171997, -0.06466454267501831, 0.2596607804298401, -0.23982395231723785, -0.06650301814079285, -0.015446256846189499, -0.04025962948799133, 0.021931646391749382, 0.19038069248199463, -0.03802216053009033, 0.29565203189849854, -0.059923090040683746, -0.445671409368515, -0.07533827424049377, 0.1499754935503006, 0.3326132595539093, 0.06560198217630386, 0.1413196176290512, -0.36635658144950867, 0.08228624612092972, -0.10482282191514969, 0.0862598866224289, -0.2211582511663437, -0.3442772328853607, -0.14157500863075256, 0.2324668914079666, -0.2447689324617386, 0.027098165825009346, -0.06218813359737396, 0.12993091344833374, -0.012995530851185322, 0.09265851974487305, -0.3555052578449249, -0.12819181382656097, -0.04545118659734726, -0.187442347407341, -0.4150253236293793, 0.1776222437620163, 0.015845483168959618, 0.17984306812286377, -0.28177550435066223, -0.4319504499435425, 0.19037330150604248, -0.07323522120714188, -0.22192907333374023, 0.2863776981830597, -0.14445863664150238, -0.07729235291481018, 0.11760059744119644, -0.22300253808498383, -0.23846206068992615, 0.2789174020290375, 0.2273537963628769, -0.28048011660575867, -0.2520149052143097, -0.16726674139499664, -0.09699665009975433, -0.13822592794895172, -0.15345719456672668, -0.22224290668964386, 0.017866292968392372, -0.12005709856748581, 0.13433602452278137, 0.13190370798110962, 0.31007686257362366, -0.21751131117343903, -0.10316165536642075, -0.0733228549361229, 0.0805538073182106, -0.2582659423351288, -0.13259126245975494, -0.07656656950712204, 0.09619835764169693], [-0.5638989210128784, -0.04410844296216965, 0.06809273362159729, 0.15836121141910553, -0.08171293139457703, 0.1707928627729416, -0.03028119169175625, -0.2260768562555313, -0.24467773735523224, -0.17787830531597137, -0.3500877916812897, -0.20620520412921906, 0.25673818588256836, -0.16173498332500458, -0.09736364334821701, -0.44759276509284973, 0.34779366850852966, 0.24482478201389313, 0.11666550487279892, 0.04040074348449707, -0.09480025619268417, 0.07100754976272583, -0.11897248029708862, -0.14158597588539124, -0.022326327860355377, -0.28763505816459656, -0.21143855154514313, -0.06883226335048676, -0.2952159345149994, -0.24063055217266083, 0.04426741600036621, -0.2878871262073517, 0.1832369565963745, 0.23105168342590332, -0.14829005300998688, -0.03445974737405777, -0.294638991355896, -0.16655848920345306, -0.1397991180419922, 0.21772931516170502, -0.1436220407485962, -0.3285752236843109, -0.28952279686927795, 0.21845044195652008, 0.3023919463157654, 0.0814753994345665, -0.013896835967898369, -0.32041946053504944, 0.24298889935016632, -0.10067877918481827, -0.345347136259079, 0.07300825417041779, 0.21395745873451233, 0.043242115527391434, -0.3512800633907318, -0.18394936621189117, 0.3891427516937256, 0.31232747435569763, -0.3177528977394104, 0.2557757794857025, -0.01616007462143898, 0.2599758207798004, -0.10252009332180023, -0.24633385241031647, -0.36756882071495056, 0.3111144006252289, -0.21586303412914276, 0.3571309745311737, -0.4773270785808563, -0.1865917295217514, -0.09943196922540665, -0.0390000157058239, 0.23738835752010345, -0.03783339634537697, 0.0820404589176178, -0.09128110110759735, 0.09822587668895721, -0.010480468161404133, 0.022589650005102158, 0.05966545268893242, 0.11649478226900101, -0.34560760855674744, -0.2129688709974289, 0.3057129383087158, 0.2568536400794983, 0.13353095948696136, -0.20739921927452087, 0.1636199802160263, -0.08930826187133789, 0.02234157919883728, -0.26155829429626465, -0.02586670033633709, -0.31626951694488525, -0.2022245079278946, -0.24230454862117767, 0.5733059644699097, 0.46883198618888855, -0.0967433825135231, -0.12339746952056885, 0.18800711631774902, -0.29659852385520935, -0.2808612287044525, 0.013025513850152493, 0.13655796647071838, 0.15787167847156525, 0.08639965951442719, -0.8955283164978027, -0.38876450061798096, 0.5166267156600952, 0.04400724172592163, -0.17312099039554596, 0.253383606672287, 0.2225729525089264, 0.3294549584388733, -0.014836265705525875, 0.2342410534620285, 0.027631143108010292, 0.07879675179719925, 0.017081407830119133, -0.2073175013065338, -0.13758854568004608, -0.07799917459487915, -0.353300005197525, 0.33849337697029114, -0.08160308748483658, 0.05179514363408089, 0.22196605801582336, -0.2555493414402008], [-0.048677098006010056, 0.4730761647224426, -0.281075119972229, 0.10491637885570526, -0.11309277266263962, 0.20868605375289917, 0.26488909125328064, -0.23249682784080505, -0.20401650667190552, 0.37582847476005554, 0.35940101742744446, -0.010732843540608883, 0.054926227778196335, 0.0015962441684678197, 0.01003287360072136, 0.15273602306842804, -0.07814888656139374, 0.38811883330345154, -0.08140311390161514, -0.06847763806581497, 0.09931264817714691, -0.04236965253949165, -0.03604216128587723, 0.002265071263536811, 0.02171334996819496, 0.14339491724967957, -0.14381545782089233, 0.04615657031536102, 0.28948768973350525, 0.02232336439192295, 0.012929643504321575, 0.08147778362035751, -0.15215492248535156, -0.05936620384454727, 0.2365078181028366, 0.11313267797231674, 0.030243873596191406, -0.11044031381607056, 0.1482595056295395, 0.1827421337366104, 0.043450284749269485, -0.28724294900894165, 0.19508160650730133, 0.07398401945829391, -0.15605394542217255, 0.2618100345134735, 0.41487792134284973, -0.11388711631298065, 0.1167321652173996, 0.07366666942834854, -0.23080290853977203, 0.04921887069940567, 0.09455572068691254, -0.21918603777885437, -0.07530773431062698, 0.24306407570838928, -0.1817060261964798, 0.06395284086465836, -0.023575710132718086, -0.17739641666412354, 0.0861591175198555, 0.38949093222618103, -0.3318266272544861, 0.04396786168217659, -0.21285247802734375, -0.3253072202205658, -0.015315577387809753, -0.045908816158771515, 0.282861590385437, -0.13102996349334717, -0.033204201608896255, 0.24086757004261017, -0.4948805868625641, 0.16864515841007233, 0.0491969995200634, 0.03745175153017044, -0.43024352192878723, -0.215219646692276, -0.0008770712884142995, 0.19478459656238556, 0.26517143845558167, -0.08442632853984833, 0.051675163209438324, 0.06872817128896713, -0.2761746942996979, 0.2116214483976364, -0.055204447358846664, -0.21722854673862457, -0.3856317698955536, 0.33204060792922974, 0.13114474713802338, -0.23447288572788239, 0.11664868146181107, 0.21916110813617706, -0.42216983437538147, -0.027813205495476723, 0.08535926789045334, 0.11872725188732147, -0.32313987612724304, -0.08435223251581192, 0.08992654085159302, 0.02485921047627926, 0.008825129829347134, -0.006946484092622995, 0.11281558871269226, -0.167835995554924, -0.2169668972492218, -0.033858876675367355, -0.04729075729846954, 0.06819334626197815, -0.34458988904953003, -0.22022156417369843, -0.2826147973537445, 0.06201472133398056, -0.1787986308336258, -0.21036627888679504, 0.08621113002300262, 0.006826779805123806, 0.1561056673526764, -0.10375244170427322, -0.22489877045154572, -0.13316087424755096, 0.11437379568815231, 0.13637910783290863, -0.029762128368020058, -0.05273522064089775, 0.18707439303398132, -0.4249895513057709], [-0.17125102877616882, 0.2889646887779236, -0.2465936541557312, -0.12731780111789703, -0.23508791625499725, -0.16244442760944366, -0.08263064920902252, 0.28402021527290344, 0.10920798033475876, -0.061905618757009506, 0.18820251524448395, -0.4058786928653717, -0.05828839913010597, 0.09917820990085602, 0.10877472907304764, -0.10713157057762146, -0.15278156101703644, 0.007651816122233868, -0.023776670917868614, -0.08629155904054642, -0.11812210083007812, 0.26162993907928467, 0.024670666083693504, -0.2117324322462082, 0.09767797589302063, 0.3239912688732147, 0.1120738685131073, 0.026633404195308685, -0.22080111503601074, -0.27106016874313354, -0.1153646782040596, -0.07992614060640335, -0.17605061829090118, -0.2191278338432312, -0.13907422125339508, 0.1730298548936844, 0.019705170765519142, -0.13844291865825653, -0.09053213894367218, -0.2535353899002075, -0.04989231005311012, 0.02836274541914463, -0.09052073955535889, -0.20646631717681885, -0.1622457206249237, -0.03977479785680771, -0.04398321732878685, 0.2278500497341156, -0.15666227042675018, -0.2768270969390869, -0.08812902122735977, 0.17813363671302795, 0.0007316325791180134, -0.042809948325157166, 0.11431588977575302, 0.10456659644842148, -0.21809077262878418, 0.2895682752132416, -0.0752640813589096, -0.16434499621391296, 0.07184828072786331, -0.13788606226444244, -0.14245173335075378, 0.08607041090726852, -0.13224367797374725, 0.20000134408473969, -0.21166162192821503, -0.21157623827457428, -0.12966768443584442, -0.08393071591854095, 0.15266510844230652, 0.12681891024112701, 0.09272598475217819, -0.2057306170463562, 0.3882182538509369, -0.07835379987955093, 0.21696576476097107, 0.007231845520436764, -0.33436712622642517, -0.17395102977752686, 0.21337924897670746, -0.23806189000606537, -0.061131663620471954, -0.05840223282575607, 0.05647670477628708, 0.01287264097481966, -0.08449716120958328, -0.2639002203941345, 0.09676391631364822, 0.11658168584108353, 0.012190807610750198, -0.11142527312040329, 0.13962972164154053, 0.21732325851917267, 0.1835273951292038, -0.08056119084358215, -0.3843584656715393, 0.09825494885444641, -0.07220999151468277, -0.31095588207244873, 0.2236538976430893, -0.26799339056015015, -0.03910808265209198, 0.031175335869193077, -0.1657133400440216, -0.10862241685390472, 0.17689158022403717, 0.19801296293735504, 0.034438613802194595, 0.2100158929824829, 0.10593366622924805, -0.046766672283411026, -0.060038670897483826, -0.20936749875545502, -0.21579042077064514, 0.3791758418083191, 0.15559133887290955, -0.042744457721710205, -0.013641332276165485, 0.12024080753326416, -0.3986533582210541, 0.07411061972379684, 0.29052066802978516, -0.13662055134773254, -0.18834054470062256, -0.11684105545282364, 0.21870718896389008, 0.2552167475223541], [-0.0768706277012825, -0.009196285158395767, 0.2601765990257263, 0.2900468409061432, -0.041224002838134766, 0.15156695246696472, -0.2445153445005417, -0.1759711354970932, -0.31399574875831604, -0.2741142511367798, -0.22479712963104248, -0.08264008909463882, -0.08065557479858398, 0.022190779447555542, -0.1313619613647461, -0.23091289401054382, 0.34606656432151794, 0.23657135665416718, -0.124976746737957, 0.05253072455525398, 0.17745116353034973, -0.12879081070423126, -0.09044082462787628, -0.04793085530400276, 0.18024177849292755, -0.29373764991760254, 0.1269972175359726, -0.043606143444776535, 0.01963801309466362, 0.1494162678718567, 0.34133380651474, -0.16298967599868774, 0.28435906767845154, 0.07965359836816788, -0.0833451971411705, -0.2157054990530014, 0.16686944663524628, 0.08574080467224121, -0.13849879801273346, -0.06197260692715645, -0.20122693479061127, -0.09998130798339844, -0.3232807517051697, -0.02752181887626648, 0.05752582848072052, -0.018000133335590363, -0.2171337604522705, -0.2561604380607605, 0.015663189813494682, -0.19899974763393402, -0.13913525640964508, -0.095245860517025, 0.13026884198188782, 0.17821715772151947, -0.5337325930595398, -0.05821540951728821, 0.40584656596183777, -0.002108648419380188, -0.13712359964847565, 0.39730697870254517, 0.041207846254110336, 0.2346356362104416, -0.15440721809864044, -0.1560247540473938, -0.01885807327926159, -0.11704530566930771, 0.18803638219833374, 0.40429043769836426, -0.22124403715133667, -0.1316807121038437, -0.28171443939208984, -0.15980342030525208, 0.1025511845946312, -0.18234458565711975, 0.17976893484592438, -0.2803955674171448, -0.3216370940208435, -0.05975672975182533, 0.4102446436882019, 0.21016578376293182, 0.2540263533592224, -0.34297481179237366, -0.07495076954364777, 0.16536059975624084, 0.1654021292924881, -0.17053566873073578, 0.09253842383623123, -0.13974010944366455, -0.10653088241815567, 0.01310571189969778, -0.07929997891187668, -0.14012615382671356, -0.39709392189979553, -0.03806190565228462, -0.25245124101638794, 0.08942200988531113, 0.5903716087341309, -0.08956726640462875, 0.10105821490287781, 0.1995043307542801, -0.11498280614614487, -0.07976140826940536, -0.13641245663166046, -0.14363858103752136, 0.10211238265037537, -0.2934998869895935, -0.5250093936920166, -0.4049015939235687, -0.026691563427448273, -0.1824178695678711, 0.08496028184890747, -0.06645451486110687, 0.34600865840911865, 0.28343164920806885, -0.03221498057246208, 0.10575293004512787, 0.07972192764282227, -0.06512352079153061, -0.06380655616521835, -0.21736302971839905, -0.05449719727039337, 0.12106158584356308, -0.08884916454553604, 0.26616477966308594, 0.11360334604978561, 0.23501195013523102, 0.18230471014976501, -0.3345191478729248], [0.013181798160076141, 0.7637948989868164, -0.2944515347480774, 0.18917977809906006, -0.06700199097394943, 0.4031389355659485, 0.36097270250320435, -0.5145601034164429, 0.019481567665934563, 0.035904332995414734, 0.10395149141550064, 0.021329523995518684, -0.04463175684213638, 0.06449531763792038, 0.32596075534820557, 0.025647079572081566, -0.0544607900083065, 0.0661211907863617, 0.007570703513920307, 0.029565829783678055, 0.18801815807819366, -0.36807772517204285, -0.04810312017798424, -0.05872204527258873, 0.20160648226737976, 0.028824081644415855, 0.4213448166847229, -0.03369969502091408, 0.72751384973526, -0.09691907465457916, 0.1096741259098053, 0.17721597850322723, -0.2923777997493744, 0.31292492151260376, 0.37807294726371765, -0.0931813195347786, -0.12262529134750366, -0.10734687745571136, -0.2951390743255615, 0.0021109392400830984, -0.1713944375514984, -0.03983648121356964, -0.061122532933950424, 0.06221136450767517, 0.1296091377735138, 0.3265775740146637, 0.4348224103450775, -0.4016965925693512, 0.14645858108997345, -0.0693228468298912, -0.29579466581344604, -0.07940725237131119, -0.04456298425793648, -0.14389115571975708, 0.04138568416237831, 0.6001683473587036, -0.5454370379447937, 0.12252126634120941, 0.0035449780989438295, -0.08471367508172989, -0.20154137909412384, 0.452788770198822, -0.2341538965702057, -0.21467329561710358, -0.24590982496738434, -0.07372894138097763, 0.185161754488945, -0.07641176134347916, 0.28739261627197266, -0.14561356604099274, -0.08354408293962479, 0.37625452876091003, -0.19511795043945312, 0.11502822488546371, 0.3861304819583893, -0.14089390635490417, -0.11800213903188705, -0.33144107460975647, 0.11956905573606491, -0.027272164821624756, 0.06296178698539734, -0.2422332614660263, 0.32724326848983765, -0.0033391735050827265, 0.029774731025099754, 0.06891052424907684, 0.15132631361484528, -0.22835777699947357, 0.0012989152455702424, 0.4228244423866272, 0.2707943320274353, -0.07632775604724884, -0.06763626635074615, 0.38081440329551697, -0.6129652261734009, -0.33046913146972656, 0.5551140904426575, 0.20911988615989685, -0.18608686327934265, -0.07408448308706284, -0.32954519987106323, -0.10141576081514359, 0.22555135190486908, 0.10919059067964554, -0.26158544421195984, -0.00929857138544321, -0.27296385169029236, 0.05584044009447098, -0.48076197504997253, 0.2010199874639511, -0.23212462663650513, -0.0399458222091198, -0.41068124771118164, -0.17482337355613708, -0.01814618520438671, -0.36013415455818176, 0.02512291446328163, -0.04574811831116676, 0.36399030685424805, 0.1002735048532486, -0.061094705015420914, -0.4080490469932556, -0.08905533701181412, -0.007475182879716158, -0.13996127247810364, 0.2962149381637573, -0.014474445022642612, -0.49552786350250244], [-0.0821923092007637, 0.38618597388267517, -0.13316267728805542, -0.028876040130853653, -0.011455805040895939, 0.12462856620550156, -0.2242272049188614, 0.7209984064102173, -0.03588002175092697, -0.2112504541873932, 0.019778378307819366, -0.7656661868095398, -0.06795363128185272, 0.22229906916618347, 0.1875721663236618, -0.22176635265350342, -0.4255966246128082, -0.09159503132104874, -0.02628771774470806, -0.05651068687438965, -0.09088899195194244, 0.21237224340438843, -0.1769532710313797, -0.014734207652509212, 0.0662093535065651, 0.5642326474189758, -0.05394019931554794, 0.0349021852016449, -0.26495838165283203, 0.024713657796382904, -0.06234301999211311, 0.09323025494813919, -0.17058220505714417, -0.18035878241062164, 0.02637285552918911, 0.06794410198926926, -0.057203445583581924, -0.0727362409234047, -0.28548818826675415, -0.24117982387542725, 0.014667173847556114, -0.35744380950927734, 0.16236001253128052, -0.20821374654769897, 0.20735974609851837, -0.09057525545358658, -0.19297471642494202, 0.2472425252199173, 0.09720372408628464, 0.022594477981328964, 0.059531841427087784, -0.03581088408827782, -0.08316724002361298, 0.18165312707424164, 0.24227911233901978, 0.04170508310198784, -0.35026246309280396, 0.1376417577266693, -0.05897865444421768, -0.22284717857837677, -0.018335573375225067, -0.08066213876008987, 0.11697306483983994, 0.1353265643119812, 0.05805760622024536, 0.21821372210979462, -0.1628834456205368, 0.018087344244122505, 0.1247517317533493, -0.30177778005599976, 0.10712679475545883, 0.4382219910621643, 0.015373299829661846, -0.00929863378405571, 0.5080636143684387, -0.3852768540382385, 0.2524045705795288, 0.10749558359384537, -0.09581228345632553, 0.035114336758852005, 0.1390809863805771, -0.19568488001823425, -0.037077613174915314, 0.049459975212812424, 0.10192444175481796, -0.3666739761829376, 0.062444161623716354, 0.21186108887195587, -0.128931924700737, 0.10010088235139847, 0.1945757269859314, -0.10454386472702026, 0.34106969833374023, 0.15219151973724365, -0.2004152238368988, -0.04036369174718857, -0.31664544343948364, 0.05865442752838135, -0.1844194233417511, 0.00932147167623043, -0.2686540186405182, -0.45497265458106995, -0.04941324517130852, -0.0025867943186312914, 0.004442346747964621, -0.24185341596603394, 0.11843026429414749, -0.13257338106632233, 0.13195069134235382, 0.48426076769828796, 0.0031548941042274237, -0.25873178243637085, 0.08229272067546844, -0.15430912375450134, -0.28918999433517456, 0.7412217855453491, -0.0112636499106884, -0.1252828985452652, -0.07998921722173691, 0.021311258897185326, -0.3620948791503906, 0.0636632964015007, -0.04610176756978035, 0.15995348989963531, -0.15779109299182892, -0.009063118137419224, 0.20101851224899292, 0.07310362905263901], [-0.11939875781536102, 0.15631359815597534, 0.019598709419369698, -0.016884077340364456, -0.028717154636979103, -0.14589731395244598, -0.026406224817037582, 0.03834061697125435, -0.30182647705078125, -0.1924714893102646, -0.021258363500237465, 0.010286561213433743, -0.22539545595645905, 0.01603313907980919, -0.08463460206985474, -0.22108779847621918, 0.45711758732795715, 0.17227356135845184, -0.341140478849411, 0.0771927461028099, 0.09802506864070892, -0.13234077394008636, 0.10616634786128998, 0.20609654486179352, -0.02820691093802452, -0.03165638446807861, -0.11011695861816406, -0.2421528846025467, -0.19543270766735077, 0.1668318659067154, 0.05052945762872696, 0.10487642884254456, 0.28977787494659424, -0.052397310733795166, -0.004497189540416002, -0.3278689682483673, 0.2392864227294922, -0.19079789519309998, -0.11210459470748901, 0.09557871520519257, 0.09216050058603287, -0.07471004128456116, -0.3152723014354706, 0.17902696132659912, 0.25953319668769836, 0.10964937508106232, -0.3632694482803345, -0.026030099019408226, 0.2591724693775177, 0.08836857229471207, -0.4541935622692108, -0.07561647146940231, 0.14662840962409973, 0.18576587736606598, -0.6302483081817627, -0.12219195812940598, 0.42367857694625854, -0.09237784892320633, 0.10056453943252563, 0.2019210010766983, 0.010591062717139721, 0.22472578287124634, -0.2814037799835205, 0.09471508860588074, -0.10014740377664566, -0.20754706859588623, 0.05969829484820366, 0.3876052498817444, -0.03845908120274544, -0.0026317730080336332, -0.07329466193914413, -0.04052276536822319, 0.2741698920726776, -0.14345359802246094, 0.01580899953842163, -0.46176743507385254, -0.3272397220134735, -0.2877677083015442, 0.21875210106372833, 0.15734781324863434, 0.03879065811634064, -0.2766052484512329, -0.17155510187149048, -0.013900453224778175, -0.06203479319810867, -0.2884801924228668, 0.029734238982200623, 0.04973991960287094, -0.03523050621151924, -0.09726609289646149, -0.11404261738061905, -0.009637612849473953, -0.17548783123493195, -0.2370622307062149, -0.3208235502243042, 0.004406426101922989, 0.35767900943756104, -0.31611812114715576, 0.01885821856558323, 0.08546236157417297, -0.13304871320724487, 0.06875500082969666, 0.1583871692419052, -0.14914533495903015, 0.2777549922466278, -0.48340484499931335, -0.5889233946800232, -0.46559029817581177, 0.036339517682790756, 0.05146045237779617, -0.09306152909994125, 0.2121180295944214, 0.09472453594207764, 0.36840152740478516, -0.14160382747650146, -0.13861672580242157, 0.0042436737567186356, -0.08538377285003662, -0.2139967978000641, -0.2781813144683838, 0.10682260990142822, -0.0031064192298799753, -0.2595844566822052, 0.1388384997844696, 0.0022616495843976736, 0.010022755712270737, 0.10466253012418747, -0.6371212005615234], [-0.2201641947031021, 1.1876693964004517, -0.8679278492927551, 0.20170675218105316, 0.14227381348609924, 0.15415018796920776, 0.45102331042289734, -0.9342382550239563, 0.052920278161764145, -0.011039293371140957, 0.14539910852909088, -0.0678049623966217, -0.09042675793170929, -0.06521531939506531, 0.5840447545051575, 0.012534767389297485, 0.31277650594711304, 0.10298702865839005, -0.04357608035206795, -0.3279232382774353, 0.19440875947475433, -0.5283716917037964, -0.014296670444309711, 0.10563288629055023, 0.12946641445159912, 0.16903086006641388, 0.7480819225311279, -0.11032591015100479, 1.2576484680175781, -0.1099015548825264, 0.16309987008571625, -0.017406601458787918, -0.16539539396762848, 0.2547818422317505, 0.4465999901294708, -0.15121079981327057, -0.030848797410726547, -0.07371597737073898, -0.4464285671710968, -0.17765629291534424, -0.45454034209251404, -0.04957755282521248, 0.06677508354187012, -0.012756076641380787, -0.14277499914169312, 0.19147548079490662, 0.3306425213813782, -0.5111902356147766, 0.40317603945732117, 0.00462536932900548, -0.11867315322160721, -0.11365813761949539, -0.044819168746471405, -0.31179219484329224, 0.08139067888259888, 1.0581386089324951, -1.0983376502990723, -0.19162383675575256, 0.12749947607517242, 0.03073413111269474, -0.23124723136425018, -0.04734765738248825, -0.4558069705963135, -0.05442606657743454, -0.010176893323659897, -0.11098065972328186, 0.25676652789115906, -0.008064663968980312, -0.0606602318584919, -0.04305470734834671, -0.2512557804584503, 0.43646958470344543, 0.04991511255502701, 0.11576147377490997, 0.8463779091835022, 0.03576110675930977, -0.2539765536785126, -0.37944620847702026, -0.22470445930957794, 0.15176936984062195, 0.2608129680156708, -0.04772350564599037, 0.39920467138290405, 0.22176127135753632, -0.0018407547613605857, -0.032695937901735306, -0.02533428929746151, 0.08362650126218796, -0.14838512241840363, 0.3387569487094879, 0.06322149932384491, -0.24478760361671448, -0.4683495759963989, 0.30903834104537964, -0.48626261949539185, -0.2252505123615265, 0.8067095279693604, 0.41560909152030945, -0.1816403567790985, -0.32642507553100586, -0.3894021511077881, 0.05801265314221382, 0.5155133605003357, 0.31506583094596863, -0.3783467710018158, 0.2172473818063736, -0.1349588930606842, -0.0617375373840332, -0.7908360362052917, 0.37024566531181335, -0.3691507875919342, 0.1460343301296234, -0.06556767970323563, 0.0751211941242218, -0.09593221545219421, -0.6619340181350708, -0.07021725177764893, -0.12745675444602966, 0.2946290075778961, 0.13033241033554077, -0.22074057161808014, -0.4798796772956848, -0.11110179126262665, 0.12839442491531372, 0.13741108775138855, 0.09892231225967407, 0.19149942696094513, -0.6112515330314636], [0.32833021879196167, 0.5127279162406921, -0.6042580604553223, 0.3634626269340515, -0.12205984443426132, 0.44970232248306274, -0.1718389391899109, 1.2698904275894165, 0.34627100825309753, 0.2998140752315521, 0.21038874983787537, -1.1735382080078125, -0.17542468011379242, 0.07395908236503601, 0.14083650708198547, 0.09768275916576385, -0.5900781154632568, 0.366293340921402, 0.009635225869715214, -0.13909240067005157, 0.04007905721664429, 0.3503318428993225, 0.32858458161354065, -0.04412999749183655, 0.06360264122486115, 0.6870542764663696, -0.19352786242961884, 0.06698264181613922, -0.47268378734588623, -0.19870544970035553, -0.008294136263430119, -0.18608295917510986, -0.5873880982398987, -0.6787236332893372, 0.42029309272766113, 0.2104514092206955, 0.2441321313381195, -0.0936761274933815, -0.34278392791748047, -0.17501534521579742, 0.11483166366815567, -0.6777600646018982, 0.19033661484718323, -0.2685386836528778, 0.21515226364135742, 0.09921510517597198, -0.1154470443725586, 0.12025552988052368, 0.010190503671765327, -0.03888451308012009, -0.12088839709758759, -0.013645953498780727, 0.025864047929644585, 0.10723754018545151, 0.4320729970932007, -0.16597910225391388, -0.8720773458480835, -0.03611041232943535, 0.04816273972392082, -0.4939906895160675, 0.08932557702064514, -0.2786162793636322, 0.040357112884521484, 0.3586781919002533, 0.2469361126422882, 0.31293535232543945, -0.29286977648735046, 0.1991470456123352, -0.03655929118394852, -0.13780011236667633, -0.020154835656285286, 0.7120752334594727, 0.015101312659680843, -0.15385261178016663, 0.5980516076087952, -0.7116583585739136, 0.20245826244354248, 0.08200827240943909, 0.34282058477401733, -0.19981849193572998, -0.004190207924693823, -0.21299612522125244, -0.3094736933708191, -0.046870164573192596, -0.030167579650878906, -0.44436854124069214, 0.05248839035630226, -0.06431001424789429, -0.1956590712070465, 0.1717924028635025, 0.28327587246894836, 0.17462846636772156, 0.4878799617290497, 0.14999549090862274, -0.25355958938598633, -0.07866168022155762, -0.6206070184707642, 0.2851983904838562, -0.28058332204818726, -0.09173963218927383, -0.30397921800613403, -0.7110698819160461, -0.03294555842876434, 0.2450215071439743, -0.2125737965106964, -0.215592160820961, -0.03899337723851204, 0.08724422752857208, 0.12576566636562347, 0.8764029741287231, 0.2488391250371933, -0.051931232213974, 0.441269189119339, -0.1343650370836258, -0.4908539354801178, 0.9412121176719666, -0.14365026354789734, 0.12908099591732025, -0.1211610808968544, 0.17832662165164948, -0.061223194003105164, 0.4257412850856781, 0.15765538811683655, 0.17430301010608673, -0.28034162521362305, 0.08768841624259949, -0.0645066574215889, 0.06392468512058258], [-0.1193990558385849, 0.11427079886198044, -0.09211276471614838, -0.07202465832233429, 0.11009812355041504, -0.1444127857685089, -0.21189787983894348, -0.23962576687335968, 0.04459066316485405, 0.05267512425780296, -0.04253678768873215, -0.22180092334747314, -0.2023135870695114, 0.14262063801288605, 0.17288848757743835, -0.15002860128879547, 0.14224646985530853, -0.1628827452659607, -0.0888856053352356, 0.007059469819068909, -0.049314096570014954, -0.4448990821838379, -0.045591842383146286, 0.35639798641204834, -0.10789083689451218, -0.0054487609304487705, 0.05420927703380585, -0.1108207255601883, -0.2375297099351883, 0.010997283272445202, 0.16595393419265747, 0.24482066929340363, 0.17921589314937592, 0.10716316103935242, -0.2087029218673706, -0.11797729134559631, 0.18877609074115753, -0.1772373765707016, 0.1113373413681984, 0.0281307902187109, -0.06874079257249832, -0.025156989693641663, -0.18759720027446747, 0.12184100598096848, -0.017958173528313637, 0.07672367244958878, 0.019492609426379204, -0.25460854172706604, 0.18724192678928375, -0.011388283222913742, -0.3481391370296478, -0.09582731872797012, 0.32492074370384216, 0.0204911045730114, -0.6434215903282166, -0.302370548248291, 0.33665230870246887, 0.06313467770814896, -0.1088489219546318, 0.33084651827812195, -0.06380391120910645, 0.2437293380498886, -0.1525581181049347, -0.1175735592842102, -0.06834151595830917, -0.242169588804245, 0.328498899936676, 0.3713356554508209, -0.026545081287622452, -0.05234986171126366, -0.3011510670185089, 0.022204671055078506, 0.3564629852771759, 0.11952695995569229, -0.15811635553836823, -0.46775585412979126, -0.4357600510120392, -0.16035528481006622, 0.34759557247161865, -0.03310651704668999, 0.12451902031898499, -0.09067691117525101, 0.03247055038809776, 0.007469096686691046, 0.013786052353680134, -0.152583047747612, -0.10117192566394806, -0.032675378024578094, 0.051538947969675064, -0.05136488750576973, -0.06510251760482788, -0.015394958667457104, -0.33294978737831116, -0.22494111955165863, -0.2918214797973633, -0.044783513993024826, 0.4888826608657837, -0.12329963594675064, -0.06194593012332916, -0.029620105400681496, -0.09179161489009857, -0.1455722600221634, 0.05431177094578743, -0.20001855492591858, 0.07828366011381149, -0.40327203273773193, -0.48322594165802, -0.1369900405406952, -0.030695511028170586, -0.30014923214912415, 0.08588145673274994, -0.13029798865318298, 0.3618735373020172, 0.06039559841156006, 0.1003211960196495, -0.10940026491880417, -0.03808610513806343, -0.07469827681779861, -0.14898301661014557, -0.06689798831939697, 0.22658812999725342, -0.08393839746713638, -0.16003483533859253, 0.13518260419368744, 0.09900400787591934, 0.17436109483242035, 0.053002431988716125, -0.4961336851119995], [0.1344975382089615, -0.4470975399017334, 0.06820190697908401, -0.17531931400299072, 0.12969870865345, -0.22878925502300262, 0.058848340064287186, 0.01265197154134512, 0.03911716118454933, -0.24882161617279053, -0.10592005401849747, 0.0037785808090120554, -0.07861410826444626, 0.06407753378152847, -0.13739904761314392, -0.0381397120654583, -0.09526706486940384, 0.284255713224411, -0.02072581648826599, 0.06418678909540176, -0.2036689966917038, 0.018452638760209084, 0.2537091076374054, 0.15023554861545563, -0.0265905000269413, -0.021103397011756897, -0.16688229143619537, -0.15869855880737305, -0.06796243041753769, -0.05761424079537392, -0.057657960802316666, -0.12542693316936493, -0.1308799833059311, 0.11451364308595657, -0.18878892064094543, 0.19192464649677277, 0.057001762092113495, 0.10504905879497528, -0.15212339162826538, 0.20065027475357056, 0.011739872395992279, -0.1310034543275833, 0.4938582181930542, -0.0057116299867630005, 0.01809062622487545, 0.12046683579683304, 0.09175082296133041, 0.13260819017887115, -0.0945451632142067, -0.06809886544942856, 0.021412774920463562, 0.1816178262233734, -0.014764636754989624, 0.14486460387706757, -0.016851989552378654, -0.05350973829627037, -0.06222083047032356, 0.0445735864341259, 0.0447237603366375, 0.22897259891033173, -0.04531244933605194, 0.3084351122379303, -0.3885636031627655, 0.017988674342632294, -0.432311475276947, -0.1443202793598175, 0.12486892193555832, 0.006193668581545353, -0.02455909736454487, 0.15362823009490967, 0.17376790940761566, 0.006680326536297798, -0.18463920056819916, -0.0578082799911499, 0.13803383708000183, 0.1786993443965912, 0.147222638130188, -0.19387076795101166, 0.012083885259926319, -0.0056447177194058895, -0.21662341058254242, -0.19884395599365234, 0.4072361886501312, -0.0904654711484909, -0.352830708026886, 0.14143560826778412, -0.06379512697458267, 0.031964633613824844, -0.30158287286758423, -0.042999863624572754, -0.3067600727081299, -0.25484588742256165, 0.1670295000076294, -0.28972145915031433, 0.24451768398284912, -0.025814954191446304, -0.15839211642742157, -0.12444882839918137, -0.2747517228126526, 0.07783307880163193, 0.33171483874320984, -0.02540038526058197, 0.11921796947717667, -0.4147149324417114, 0.34520289301872253, -0.10179298371076584, 0.0679551362991333, 0.15184618532657623, -0.05301347374916077, -0.03465290740132332, -0.22465559840202332, -0.005490356590598822, -0.16547878086566925, 0.30632394552230835, 0.09457628428936005, 0.041451986879110336, -0.12192284315824509, 0.09067068248987198, 0.1615733802318573, -0.11746363341808319, -0.041244085878133774, 0.22688183188438416, 0.0054730442352592945, 0.17542028427124023, -0.0797465592622757, 0.34955736994743347, -0.19027307629585266, 0.3894113302230835], [0.13980993628501892, -0.25558120012283325, 0.10304995626211166, -0.10994905978441238, -0.33223655819892883, 0.13677562773227692, 0.38273128867149353, 0.1870933175086975, -0.04031115770339966, -0.1736699342727661, -0.012570839375257492, -0.004185043275356293, -0.230063334107399, -0.05792088806629181, 0.14700470864772797, 0.08031956106424332, -0.36938589811325073, 0.06651391088962555, -0.231742262840271, 0.13014687597751617, -0.24443811178207397, -0.28884652256965637, 0.13533487915992737, 0.17859691381454468, -0.13745266199111938, 0.6076804995536804, 0.20539751648902893, 0.07447834312915802, -0.16169239580631256, -0.10248452425003052, 0.06076688691973686, 0.19319404661655426, -0.45048850774765015, -0.18784187734127045, -0.10056398063898087, -0.07502981275320053, 0.024541907012462616, -0.00439480971544981, -0.23728139698505402, -0.15729941427707672, 0.18292368948459625, -0.12327174842357635, 0.024952271953225136, 0.10395411401987076, -0.18632453680038452, 0.09805766493082047, -0.1951606124639511, -0.011477290652692318, -0.03850945457816124, -0.053960755467414856, -0.010834556072950363, -0.07162607461214066, 0.18991215527057648, -0.11061018705368042, -0.1991013139486313, -0.07452231645584106, 0.055270224809646606, 0.03483618050813675, -0.008666476234793663, 0.017141414806246758, -0.17502400279045105, 0.16347509622573853, -0.06358487159013748, -0.10460007190704346, -0.012317477725446224, 0.59434574842453, 0.11860550194978714, -0.21968330442905426, -0.12544795870780945, 0.1440049707889557, -0.12499597668647766, 0.08129845559597015, 0.09031231701374054, -0.029436111450195312, 0.48832497000694275, 0.23051100969314575, 0.4604041576385498, -0.026912415400147438, -0.06277813017368317, -0.19140243530273438, 0.23987506330013275, -0.11170436441898346, -0.1813870370388031, -0.2516027092933655, -0.12110283225774765, -0.011413630098104477, 0.12503774464130402, 0.10992346704006195, -0.291861355304718, -0.015628546476364136, -0.3663075864315033, 0.05590374395251274, -0.032488930970430374, -0.009288076311349869, 0.07478094846010208, -0.2602236866950989, -0.09758897870779037, -0.027098115533590317, 0.06713820993900299, -0.24372217059135437, 0.1771995723247528, 0.43353623151779175, -0.08666709810495377, -0.2946830987930298, 0.0073741101659834385, 0.008394758217036724, -0.06146390363574028, -0.044203244149684906, -0.287538081407547, -0.40712741017341614, 0.29126787185668945, -0.038305722177028656, -0.20097264647483826, 0.009193012490868568, 0.0007250368944369256, -0.09406767040491104, 0.002124733990058303, 0.2669845521450043, -0.07918501645326614, -0.26574280858039856, 0.20128242671489716, -0.10747251659631729, 0.33190885186195374, -0.1581108123064041, -0.2808394432067871, 0.13482575118541718, -0.10650043934583664, 0.14188353717327118], [0.3690308630466461, -0.17563025653362274, 0.005452923942357302, 0.05942295491695404, -0.5005329847335815, -0.07469885051250458, -0.6972904801368713, -0.23398132622241974, 0.2717459499835968, 0.010905912145972252, 0.38528427481651306, 0.29400575160980225, 0.27523723244667053, 0.6391779184341431, -0.23337575793266296, 0.20694269239902496, 0.20101398229599, 0.1462276726961136, 0.07425186783075333, 0.61329585313797, 0.21506090462207794, 0.8667734861373901, -0.16370177268981934, -0.15464384853839874, 0.5588536262512207, -0.17597821354866028, 0.27470389008522034, -0.7373479604721069, 0.4684974253177643, 0.8120064735412598, 0.02444430999457836, 0.6497448086738586, -0.20279185473918915, 0.11537392437458038, 0.3639179766178131, 0.626918613910675, -0.08409483730792999, 0.5586394667625427, 0.5772926211357117, -0.7054030299186707, -0.31760290265083313, 0.18706046044826508, 0.6821073293685913, -0.6238318085670471, -0.5106073617935181, -0.2527029514312744, -0.20061926543712616, 0.25918227434158325, 0.14805005490779877, -0.5018548369407654, 0.2628617286682129, -0.3198697865009308, -0.4180125594139099, -0.1964443325996399, -0.417581170797348, -0.40045952796936035, -0.15113919973373413, -0.1582551896572113, 0.2927328646183014, -0.15353496372699738, -0.15801413357257843, -0.017276624217629433, 0.2939739227294922, -0.14527197182178497, 0.489146888256073, 0.16160665452480316, 0.044967491179704666, 0.45240482687950134, -0.019773663952946663, 0.30444803833961487, -0.06315150111913681, 0.1850348711013794, 0.3544558882713318, -0.6011765599250793, 0.31750255823135376, 0.5681082010269165, 0.05335434153676033, 0.14342273771762848, 0.7099514603614807, 0.07773508131504059, 0.382975310087204, 0.5346537828445435, 0.4462607502937317, -0.3017134368419647, 0.03599036484956741, 0.3995320796966553, 0.3367825448513031, -0.6939514875411987, 0.6027980446815491, 0.0663503035902977, 0.32819584012031555, -0.3773154020309448, -0.19928522408008575, 0.6316679120063782, -0.04530806466937065, 0.734408974647522, -0.007940426468849182, -0.02355417050421238, 0.4285151958465576, -0.4469987154006958, 0.22659999132156372, 0.03831249475479126, 0.04740697517991066, -0.2102465182542801, -0.44735682010650635, 0.0711895003914833, 0.1783645898103714, -0.7055429816246033, 0.07821471989154816, -0.21285104751586914, 0.41407009959220886, -0.2299005538225174, -0.011255801655352116, -0.5200517177581787, -0.25170865654945374, 0.13954684138298035, -0.05598164349794388, -0.3056098520755768, -0.04629690945148468, -0.1183323934674263, 0.31423914432525635, -0.13076969981193542, -0.05097845569252968, 0.538288414478302, 0.19048473238945007, 0.3923766613006592, -0.5860919952392578, 0.21376045048236847], [0.1214250698685646, -0.3224194645881653, -0.18546836078166962, -0.03404620662331581, -0.14317791163921356, -0.2061345875263214, 0.12162021547555923, 0.19561359286308289, 0.035847991704940796, 0.04058072715997696, 0.08509713411331177, -0.12071572989225388, -0.11163259297609329, 0.037848569452762604, -0.3394307792186737, -0.37502792477607727, 0.1841968446969986, 0.2798616886138916, 0.034103620797395706, 0.041983604431152344, 0.08740603923797607, 0.31306931376457214, 0.15449358522891998, -0.15675996243953705, -0.15060120820999146, -0.1602628231048584, -0.3757506012916565, -0.1634659767150879, 0.03296080604195595, 0.13075803220272064, -0.10613111406564713, -0.07572530955076218, -0.08047133684158325, -0.04836364462971687, -0.2396814227104187, 0.00030875447555445135, 0.10462310165166855, -0.2834015190601349, -0.36750081181526184, 0.013025108724832535, 0.1459086388349533, -0.0012516988208517432, 0.4932030141353607, -0.008598077110946178, 0.005938408896327019, -0.11182444542646408, 0.3349274694919586, 0.37141647934913635, 0.05263238772749901, 0.15907235443592072, 0.34106963872909546, -0.17404945194721222, 0.17727872729301453, -0.16725000739097595, 0.07384305447340012, -0.28320130705833435, -0.13162104785442352, 0.14954835176467896, -0.16882669925689697, 0.08803902566432953, -0.016929641366004944, 0.06720400601625443, -0.38918283581733704, -0.047076329588890076, -0.414193719625473, 0.09180821478366852, 0.19987070560455322, 0.1612679809331894, 0.06350967288017273, 0.0970923900604248, 0.08505058288574219, -0.04361917823553085, -0.24559873342514038, 0.14935405552387238, 0.16763140261173248, 0.11617497354745865, 0.04977630078792572, 0.18348738551139832, 0.22159354388713837, 0.10616660863161087, -0.4041231572628021, -0.07189639657735825, 0.2614254057407379, 0.06930635124444962, -0.08969388902187347, 0.035050127655267715, -0.06982714682817459, -0.1464236080646515, -0.11457027494907379, -0.14925500750541687, 0.25337401032447815, 0.009878480806946754, -0.1680096983909607, -0.43259158730506897, 0.27604833245277405, -0.09001360088586807, -0.04787781089544296, -0.41152992844581604, -0.15610355138778687, -0.0013372619869187474, 0.18979153037071228, -0.06007619947195053, -0.16604536771774292, -0.2255830317735672, 0.26880407333374023, -0.01158150378614664, -0.002876472659409046, -0.24720929563045502, -0.18224482238292694, -0.24838502705097198, -0.13085247576236725, 0.04335732385516167, -0.16742467880249023, -0.10001706331968307, -0.10548911243677139, 0.09730511158704758, -0.11105344444513321, -0.04342467710375786, 0.34846243262290955, -0.09997782856225967, -0.29641368985176086, 0.4499836564064026, -0.18332991003990173, 0.5186638236045837, -0.26314058899879456, 0.369330495595932, -0.016036661341786385, 0.4395248293876648], [0.21655622124671936, -0.1687411516904831, 0.21948473155498505, -0.07746218889951706, 0.041935279965400696, -0.17738597095012665, 0.1535758376121521, -0.10059111565351486, 0.007292993366718292, -0.052699245512485504, 0.10062761604785919, 0.3291744589805603, -0.15735357999801636, -0.10331732779741287, -0.14216051995754242, -0.08160482347011566, -0.3116500973701477, -0.1837841123342514, -0.28938648104667664, 0.3193429112434387, -0.003367505967617035, -0.31153205037117004, 0.060034576803445816, -0.11792831122875214, -0.07045311480760574, 0.5303206443786621, 0.021461518481373787, -0.031702928245067596, 0.2880220413208008, 0.10561306774616241, 0.05370057746767998, 0.12264475971460342, -0.1688743382692337, -0.1733735054731369, -0.05117310211062431, -0.3639523983001709, -0.11886446177959442, 0.08702785521745682, -0.2855396866798401, 0.026714330539107323, 0.21542318165302277, -0.008557531982660294, -0.10407451540231705, 0.10093871504068375, -0.09764788299798965, 0.03918679431080818, -0.3340514004230499, -0.13577961921691895, -0.08784680813550949, 0.2907089293003082, -0.03213247284293175, -0.2811712324619293, 0.02545131742954254, 0.1862681806087494, -0.054553501307964325, 0.03771457448601723, 0.02849750965833664, -0.1842518150806427, -0.10949518531560898, -0.21029971539974213, 0.053633883595466614, -0.09841415286064148, -0.021194742992520332, -0.04450333118438721, -0.04581749811768532, 0.5569635033607483, 0.17328476905822754, -0.08415685594081879, 0.13222871720790863, 0.12152700126171112, -0.009310595691204071, 0.08094611018896103, -0.05734628438949585, -0.12248069792985916, 0.3919983506202698, 0.11054175347089767, 0.4980304539203644, 0.13387149572372437, -0.3493961691856384, 0.19470776617527008, -0.2182415872812271, -0.11478237062692642, -0.04038316756486893, 0.20789948105812073, -0.3054986894130707, 0.1690720021724701, 0.0009370268671773374, 0.1655491441488266, -0.2189542055130005, -0.228421151638031, 0.033084552735090256, -0.058682166039943695, -0.017932862043380737, -0.290924608707428, -0.22637160122394562, -0.08536481857299805, -0.22486911714076996, 0.10047636926174164, -0.013408157974481583, 0.15636180341243744, -0.08799216896295547, -0.014988107606768608, 0.07558559626340866, -0.04092513024806976, 0.14517007768154144, -0.29120349884033203, 0.10524505376815796, 0.07688286900520325, 0.07643690705299377, 0.13303163647651672, 0.21422404050827026, 0.07863742113113403, -0.3632694184780121, -0.18251991271972656, -0.27666500210762024, -0.2716926038265228, -0.019599128514528275, -0.18620705604553223, -0.19310326874256134, -0.22615456581115723, 0.20236511528491974, -0.005320060066878796, 0.08061473071575165, 0.12313785403966904, -0.14222508668899536, -0.13484707474708557, -0.23845930397510529, -0.018006039783358574], [0.47616463899612427, -0.04127565398812294, -0.007511208299547434, -0.012832310050725937, -0.21580705046653748, -0.08108678460121155, -0.22682678699493408, -0.1899687647819519, 0.3286030888557434, 0.2747913599014282, 0.29116538166999817, 0.14967212080955505, -0.1410926878452301, 0.27168911695480347, -0.17781899869441986, 0.049083832651376724, 0.2100255787372589, -0.07656532526016235, -0.31333670020103455, 0.2206803858280182, -0.2661525309085846, 0.4617900848388672, 0.17039208114147186, -0.009861310012638569, 0.14801323413848877, 0.08609836548566818, 0.1302093267440796, -0.2524493932723999, 0.009369595907628536, 0.29181939363479614, 0.18212051689624786, 0.16859561204910278, -0.32714980840682983, 0.003838213626295328, -0.000296367215923965, 0.37357285618782043, 0.1404792219400406, 0.34867027401924133, -0.18839380145072937, -0.5271588563919067, 0.23990853130817413, 0.037071287631988525, 0.0100350771099329, -0.22980889678001404, -0.43902912735939026, -0.21785525977611542, -0.5923290848731995, -0.03386439010500908, 0.2071692794561386, -0.295413076877594, 0.03084620088338852, -0.31874218583106995, -0.14455005526542664, 0.19906871020793915, -0.341642826795578, -0.05419494956731796, -0.2806228697299957, -0.24151186645030975, 0.15432903170585632, -0.30332404375076294, 0.2313724160194397, 0.10890782624483109, -0.1278015673160553, 0.40214645862579346, -0.13305968046188354, 0.06599759310483932, -0.3995930254459381, 0.12733976542949677, 0.12422236800193787, 0.171848863363266, 0.05270195007324219, 0.08615249395370483, -0.0497112050652504, -0.26758283376693726, 0.04430457577109337, 0.24536903202533722, 0.011220144107937813, 0.17006194591522217, 0.4137713313102722, 0.2335573136806488, 0.004574916325509548, -0.18663044273853302, 0.10818003118038177, -0.14007604122161865, -0.07731799781322479, 0.11236955225467682, 0.2904614806175232, -0.23035407066345215, -0.048044610768556595, 0.0810677707195282, 0.34554141759872437, -0.24342738091945648, 0.19499872624874115, -0.06712721288204193, 0.16371974349021912, 0.235849529504776, 0.020111780613660812, 0.16499392688274384, -0.3012857139110565, 0.0009779001120477915, -0.018345462158322334, 0.4477233588695526, -0.012573616579174995, 0.1548040360212326, 0.05111480504274368, -0.3000507354736328, 0.026112230494618416, 0.15605799853801727, 0.04968925192952156, -0.11187511682510376, -0.09028706699609756, -0.17715856432914734, 0.027341241016983986, -0.40307435393333435, -0.14609767496585846, -0.1311505287885666, -0.025051956996321678, -0.20236507058143616, -0.4332285523414612, 0.009889377281069756, -0.0951552540063858, 0.18844151496887207, -0.39849725365638733, 0.09203013777732849, -0.38157376646995544, -0.19923682510852814, -0.1343107670545578, -0.14618836343288422], [-0.09644804149866104, -0.22808633744716644, -0.23173962533473969, 0.10723655670881271, -0.10950125753879547, -0.13791607320308685, 0.361003577709198, 0.014918494038283825, 0.2783565819263458, 0.037028294056653976, -0.06588854640722275, 0.03065509907901287, 0.005254058632999659, 0.13083665072917938, -0.47849106788635254, -0.6287428140640259, 0.1672034114599228, 0.19750496745109558, -0.041273508220911026, -0.0987934097647667, 0.022717351093888283, 0.07565228641033173, 0.12034212797880173, -0.08246498554944992, -0.11609424650669098, -0.043484482914209366, -0.6676490902900696, -0.003921762108802795, 0.1371997594833374, 0.31978121399879456, 0.30218788981437683, -0.16418473422527313, 0.1381540149450302, 0.17975012958049774, 0.17401546239852905, 0.05499005690217018, -0.15820421278476715, -0.38445156812667847, -0.2540726661682129, -0.0915694609284401, 0.07531242817640305, -0.09752538055181503, 0.15841664373874664, -0.012912306934595108, -0.13814541697502136, 0.2226925492286682, 0.08882467448711395, 0.13800038397312164, 0.07922376692295074, 0.057216253131628036, 0.263357937335968, -0.3721284568309784, -0.04174598306417465, -0.27245405316352844, -0.0022000251337885857, -0.45613449811935425, 0.10557084530591965, 0.45315834879875183, -0.019957585260272026, -0.028155304491519928, 0.37003105878829956, 0.09670358896255493, -0.13756224513053894, 0.034949708729982376, 0.024536581709980965, -0.05156005918979645, 0.1384749412536621, 0.054466668516397476, -0.17166462540626526, 0.3490234911441803, 0.20779240131378174, -0.17504464089870453, -0.21110504865646362, -0.1611388772726059, 0.2366180717945099, -0.012722508050501347, -0.16854648292064667, 0.25625917315483093, -0.039452988654375076, 0.15629418194293976, -0.3253299593925476, 0.13512054085731506, -0.11505270004272461, -0.08159144967794418, 0.35123512148857117, -0.008042294532060623, -0.11274633556604385, -0.06499962508678436, -0.05180924013257027, -0.29496529698371887, 0.02626507170498371, -0.21267744898796082, -0.22039425373077393, 0.04504689574241638, 0.6003758907318115, -0.13788460195064545, 0.1278495490550995, -0.34460991621017456, 0.2186170071363449, -0.2096606194972992, 0.261133074760437, 0.06550625711679459, 0.02805102989077568, 0.009475897066295147, -0.20715060830116272, -0.042482152581214905, -0.07667853683233261, -0.052999503910541534, -0.5447843074798584, 0.03715543821454048, 0.1266241818666458, -0.32401522994041443, 0.01390768401324749, 0.18995089828968048, 0.16040831804275513, 0.27281802892684937, -0.001440438674762845, 0.29102158546447754, 0.09737760573625565, -0.17927691340446472, -0.059228021651506424, 0.44674399495124817, -0.02180876024067402, 0.30091336369514465, 0.25944963097572327, -0.27783119678497314, 0.019302817061543465, 0.14196942746639252], [-0.016204271465539932, -0.3003135323524475, -0.22291110455989838, -0.033759985119104385, 0.2784205675125122, -0.32609885931015015, 0.1788179576396942, -0.1527489423751831, -0.14945566654205322, 0.06662144511938095, 0.0023320147302001715, -0.045425865799188614, 0.10415344685316086, -0.14704693853855133, -0.1919591724872589, 0.041994232684373856, -0.34665989875793457, -0.1678515374660492, 0.017542725428938866, 0.08454752713441849, 0.20978431403636932, -0.3507605493068695, 0.005218001082539558, -0.23412610590457916, -0.04515722393989563, 0.6105271577835083, 0.05144784227013588, 0.4213232100009918, 0.12827560305595398, 0.09456862509250641, 0.12580856680870056, 0.0625530257821083, 0.00015846382302697748, -0.24158737063407898, 0.13488484919071198, -0.2280362993478775, -0.4707576334476471, 0.2349727302789688, -0.2726919949054718, -0.1383875161409378, -0.17610909044742584, -0.37096789479255676, -0.20826506614685059, -0.20042236149311066, 0.22793348133563995, -0.24669264256954193, 0.1481001079082489, -0.20138943195343018, -0.007161333691328764, 0.2641649544239044, -0.02083406411111355, -0.12236170470714569, 0.001249358057975769, 0.06166370213031769, 0.14626529812812805, 0.011598886922001839, 0.10168898850679398, -0.26481863856315613, 0.1489773392677307, -0.09562331438064575, -0.1517408937215805, -0.05561074987053871, 0.049697596579790115, -0.32142311334609985, -0.16107836365699768, 0.31780219078063965, -0.04867231845855713, -0.15691836178302765, -0.20757119357585907, 0.17040641605854034, -0.07336198538541794, -0.18258146941661835, 0.3607730269432068, 0.06638001650571823, 0.08488336950540543, 0.18897950649261475, 0.34037110209465027, 0.07218077778816223, -0.3877732753753662, 0.3032364547252655, -0.18932068347930908, -0.10950735956430435, 0.007476633880287409, -0.04541816934943199, -0.2504107356071472, 0.28232160210609436, -0.44648897647857666, -0.06460259854793549, -0.10265743732452393, -0.3668721318244934, 0.3152206242084503, -0.005447385832667351, -0.29936519265174866, -0.23598873615264893, -0.16932107508182526, -0.4046274721622467, 0.13061095774173737, 0.1433161497116089, -0.20560723543167114, 0.029175398871302605, -0.03729084134101868, 0.46263381838798523, -0.0663086399435997, -0.12775453925132751, -0.06214342266321182, 0.08256615698337555, -0.06747592985630035, -0.2776496708393097, 0.1571294367313385, 0.43236324191093445, 0.11001495271921158, 0.48088428378105164, -0.13296858966350555, -0.260481059551239, -0.18606702983379364, -0.1451897770166397, -0.1297631412744522, -0.023948393762111664, 0.03642354905605316, -0.1505478173494339, 0.15335765480995178, -0.19155968725681305, 0.1491570621728897, -0.1823352873325348, -0.01673431321978569, 0.03154229000210762, -0.39448583126068115, 0.06192084774374962], [0.20967137813568115, -0.1222352609038353, 0.21879176795482635, 0.11527830362319946, -0.2388971596956253, 0.15070794522762299, 0.1267608404159546, 0.024813219904899597, 0.1606225222349167, 0.04613953083753586, 0.3550127446651459, -0.026970209553837776, 0.004076899029314518, 0.2874167561531067, -0.13604679703712463, 0.09713625907897949, -0.12260875105857849, -0.14923754334449768, -0.3103916049003601, 0.19220004975795746, -0.18313315510749817, 0.2377871572971344, 0.22321952879428864, 0.04802780970931053, 0.17460842430591583, 0.047882430255413055, 0.11608455330133438, -0.2858774662017822, 0.014056903310120106, 0.05187085643410683, -0.05751786753535271, -0.2890874445438385, -0.18619950115680695, -0.12697787582874298, 0.05830823630094528, 0.2584538459777832, 0.098748579621315, -0.013612198643386364, -0.060015689581632614, -0.057003412395715714, 0.21669217944145203, 0.28728052973747253, -0.3587578535079956, -0.08233479410409927, -0.047442562878131866, 0.0635611042380333, -0.4734410047531128, 0.12742199003696442, 0.10286799818277359, -0.1951400339603424, -0.3570815920829773, 0.20352204144001007, -0.12539024651050568, -0.027821337804198265, -0.2165519893169403, 0.27984169125556946, -0.11080212891101837, 0.10838032513856888, -0.172158345580101, -0.09708499163389206, 0.07599890977144241, 0.15327641367912292, -0.07726920396089554, 0.06450314074754715, -0.0667204037308693, -0.36426737904548645, -0.2008214145898819, -0.09156778454780579, -0.03575453534722328, 0.06410952657461166, -0.033616553992033005, -0.07306523621082306, 0.1894344538450241, -0.140104740858078, -0.267655611038208, 0.07069633901119232, -0.2328338772058487, -0.016438495367765427, 0.049283549189567566, -0.0077055939473211765, -0.14715787768363953, -0.24842703342437744, 0.012325264513492584, -0.13939432799816132, 0.16754218935966492, 0.1469973623752594, -0.05181059241294861, -0.13251686096191406, 0.020243998616933823, -0.11972720921039581, 0.10530084371566772, -0.13737225532531738, 0.17020811140537262, 0.11929845064878464, -0.012560258619487286, 0.19154483079910278, -0.029019229114055634, 0.17233626544475555, -0.36887094378471375, -0.010498939082026482, -0.029228581115603447, 0.3246797025203705, 0.01252722553908825, 0.08126472681760788, 0.01712960936129093, -0.244675412774086, -0.03393761068582535, 0.17604687809944153, -0.08983360975980759, -0.16595619916915894, -0.20561324059963226, 0.01192390639334917, 0.009559075348079205, -0.2677052319049835, -0.16687411069869995, -0.014332032762467861, -0.04665547236800194, 0.04304088279604912, -0.2577767074108124, -0.05606057122349739, -0.032255031168460846, -0.00680824089795351, -0.38291284441947937, 0.18300198018550873, -0.4056408405303955, -0.01605379767715931, 0.2417411357164383, -0.17986860871315002], [-0.17862075567245483, -0.19242270290851593, -0.3798538148403168, 0.3103718161582947, 0.31172123551368713, -0.1746925562620163, 0.15060177445411682, 0.09894631803035736, 0.410508930683136, 0.507824182510376, -0.34185072779655457, -0.09620869904756546, 0.13301381468772888, -0.17896908521652222, -0.31273359060287476, -0.5915326476097107, 0.1614275723695755, -0.16866378486156464, 0.1332499235868454, 0.07163766026496887, 0.363023042678833, 0.2539766728878021, -0.04493694379925728, -0.11354003101587296, 0.1889677792787552, -0.13066662847995758, -0.7510480284690857, 0.11594736576080322, 0.013074861839413643, 0.27356940507888794, 0.45017942786216736, 0.02269383892416954, -0.060485102236270905, 0.21531721949577332, 0.16880805790424347, -0.06393349915742874, -0.20010116696357727, -0.18435902893543243, 0.07933984696865082, -0.13816328346729279, 0.5308421850204468, -0.23883360624313354, -0.4452393651008606, 0.12035248428583145, 0.1583438217639923, -0.13152138888835907, -0.511957585811615, -0.40952160954475403, -0.2387944459915161, 0.017526954412460327, -0.30635085701942444, -0.3835415542125702, 0.1198657751083374, -0.13523514568805695, 0.24853390455245972, -0.6457715034484863, 0.21317298710346222, 0.5879546403884888, 0.07634134590625763, 0.19165639579296112, 0.7579254508018494, -0.059265006333589554, -0.08158472925424576, 0.09679388999938965, 0.6241798996925354, 0.09150668233633041, -0.27601000666618347, 0.033059246838092804, -0.3580836355686188, 0.40174978971481323, 0.2539813220500946, -0.06230669468641281, -0.21125970780849457, -0.022540338337421417, 0.2624213695526123, 0.10460939258337021, 0.09831015020608902, 0.14876346290111542, -0.21523413062095642, 0.248028963804245, -0.20532241463661194, 0.17761757969856262, -0.26991960406303406, 0.05276506766676903, 0.6870327591896057, -0.10332900285720825, -0.07514853030443192, -0.11283746361732483, 0.22500590980052948, -0.4582853615283966, -0.19444912672042847, -0.21639090776443481, -0.23038150370121002, 0.11494483053684235, 0.7757651805877686, -0.45334383845329285, 0.08677235245704651, -0.22998756170272827, 0.32081934809684753, -0.3423303961753845, -0.12094354629516602, -0.18926352262496948, -0.002179384231567383, -0.416731595993042, -0.3873307406902313, 0.1795724481344223, 0.06076641008257866, 0.14540082216262817, -0.662842333316803, -0.04342624917626381, -0.0073547400534152985, -0.38525864481925964, -0.0415826253592968, 0.037998639047145844, -0.10472753643989563, -0.08937403559684753, 0.093132883310318, 0.272897869348526, -0.3547969162464142, 0.1521029770374298, 0.2320227473974228, 0.3003394901752472, 0.18455630540847778, 0.05835685878992081, 0.6792358160018921, -0.3545307219028473, -0.07223184406757355, -0.19667842984199524], [-0.22231382131576538, -0.12711487710475922, -0.1826341599225998, 0.16854771971702576, 0.21522605419158936, -0.0021974726114422083, 0.194306880235672, 0.05413385108113289, -0.10611029714345932, -0.11423859745264053, -0.27647992968559265, -0.02530306950211525, -0.18559381365776062, 0.13241025805473328, -0.2450772374868393, -0.02857191301882267, -0.4095279276371002, -0.13029757142066956, 0.36203116178512573, -0.14369714260101318, 0.26240426301956177, -0.35235583782196045, -0.2216024249792099, -0.3224380910396576, -0.1237727701663971, 0.7428743243217468, -0.2112141251564026, 0.2829093039035797, -0.1085069328546524, 0.2059507668018341, 0.01007127296179533, 0.21878601610660553, 0.007595266215503216, -0.5242520570755005, -0.0387132428586483, -0.3269180655479431, -0.6321122646331787, 0.10901739448308945, 0.13906945288181305, 0.022189892828464508, -0.24043825268745422, -0.3983914852142334, 0.03558967262506485, 0.02909705601632595, 0.2325035184621811, -0.1926196664571762, 0.13037031888961792, -0.09894085675477982, 0.15242472290992737, 0.2031235694885254, 0.15587319433689117, -0.4298641085624695, 0.05083729326725006, -0.10789864510297775, -0.07541127502918243, -0.3718251585960388, 0.019984081387519836, -0.3155801594257355, 0.1140558198094368, 0.2855008542537689, -0.3359835743904114, 0.019160326570272446, 0.0032398824114352465, -0.41432809829711914, 0.020462431013584137, -0.21789029240608215, 0.24386823177337646, 0.2476966828107834, -0.11220534145832062, 0.11735834181308746, -0.168442964553833, -0.4044363796710968, 0.3305263817310333, -0.05668649822473526, 0.08717340230941772, 0.20494861900806427, 0.1545158326625824, -0.04293211176991463, -0.22383247315883636, 0.1860072910785675, -0.19338743388652802, -0.09090983122587204, 0.2529495358467102, 0.23487736284732819, -0.01577693037688732, 0.022730741649866104, -0.37979382276535034, -0.01601894199848175, 0.17213839292526245, -0.31259313225746155, -0.3574102818965912, 0.28826627135276794, -0.27939704060554504, 0.018675848841667175, 0.12277395278215408, -0.35652774572372437, 0.21116423606872559, -0.10013864189386368, -0.08356665819883347, -0.06137292832136154, -0.1570523977279663, 0.7401180863380432, -0.005608569830656052, -0.32126694917678833, -0.13701507449150085, 0.14929607510566711, -0.19676858186721802, -0.5963443517684937, 0.34417295455932617, 0.5238755941390991, 0.029291370883584023, 0.5813385248184204, -0.08136307448148727, -0.2664209008216858, -0.26856115460395813, 0.08569736033678055, 0.007027558982372284, -0.3088781237602234, 0.13555894792079926, 0.08666546642780304, 0.011575426906347275, -0.4023130238056183, -0.12221256643533707, -0.011404333636164665, 0.2765685021877289, 0.11288821697235107, -0.25829705595970154, -0.13835573196411133], [-0.2906689941883087, 0.14777518808841705, 0.25028908252716064, 0.1744336634874344, -0.3313780725002289, -0.06079607084393501, 0.13567689061164856, 0.11582846194505692, 0.11312980204820633, -0.00737295625731349, 0.1150510236620903, -0.07424302399158478, -0.03193047642707825, 0.18428242206573486, 0.03209692984819412, -0.11604554951190948, -0.07841584831476212, 0.06512775272130966, -0.24001936614513397, -0.0855187401175499, -0.34900858998298645, -0.03384343162178993, -0.08623385429382324, -0.0011514938669279218, 0.13373856246471405, 0.02583414316177368, -0.057548679411411285, -0.25828781723976135, -0.12074030190706253, -0.11879528313875198, 0.0532413013279438, -0.102264404296875, -0.1274699866771698, -0.08329594880342484, -0.05281752347946167, -0.14322039484977722, 0.14926119148731232, -0.14592291414737701, -0.06804733723402023, -0.08294366300106049, -0.037376973778009415, 0.11347559839487076, -0.25964677333831787, -0.05690190941095352, -0.15549561381340027, 0.1447804719209671, -0.10590507090091705, 0.2063695192337036, 0.19855596125125885, -0.35147780179977417, -0.35771557688713074, 0.2187892198562622, -0.09388658404350281, -0.10982650518417358, -0.30462518334388733, 8.422190876444802e-05, -0.26754695177078247, 0.23214155435562134, -0.18922679126262665, 0.05572474002838135, -0.26784101128578186, 0.13147994875907898, -0.30396080017089844, 0.2953246831893921, 0.10480011254549026, -0.26037657260894775, 0.07191737741231918, 0.22574612498283386, 0.024176154285669327, 0.16723565757274628, -0.22847549617290497, -0.013005086220800877, -0.08248457312583923, -0.3029581606388092, 0.09879952669143677, -0.22278128564357758, -0.03447568789124489, 0.035922836512327194, 0.040505122393369675, 0.09445584565401077, -0.08498599380254745, -0.38053038716316223, -0.1849883794784546, -0.347772479057312, -0.06731994450092316, 0.034560516476631165, 0.1093178242444992, -0.0798351913690567, -0.07232111692428589, 0.010817321948707104, -0.24352256953716278, -0.15167319774627686, 0.17733056843280792, 0.029660196974873543, 0.23823164403438568, 0.004643346183001995, 0.3680344820022583, -0.006183048710227013, -0.11507875472307205, -0.007938530296087265, -0.011360480450093746, 0.1406126171350479, 0.053090900182724, 0.20827235281467438, 0.10292055457830429, -0.07560490071773529, 0.1368558406829834, 0.02807450108230114, -0.059162579476833344, -0.11653012037277222, -0.08814229816198349, 0.018498195335268974, -0.029849747195839882, 0.05135641619563103, 0.07175887376070023, 0.027786316350102425, 0.14090748131275177, 0.32851165533065796, -0.1211196556687355, -0.09568434953689575, -0.008611775934696198, -0.09061061590909958, -0.10230085253715515, 0.0777125284075737, -0.17007312178611755, -0.0914587527513504, 0.397950679063797, -0.3503884971141815], [0.006049935705959797, -0.22414474189281464, 0.10381228476762772, -0.032497137784957886, -0.05631979554891586, -0.1471545249223709, -0.0225652065128088, 0.09210389107465744, -0.06590043753385544, -0.0643269419670105, -0.22917164862155914, 0.05488475412130356, -0.023751968517899513, -0.06249363347887993, -0.31681013107299805, -0.10062280297279358, -0.009510929696261883, 0.1627335399389267, 0.10114751011133194, 0.31332117319107056, 0.023092135787010193, 0.044076625257730484, 0.09814678132534027, 0.0201280377805233, -0.1416143923997879, -0.02643865905702114, -0.10654435306787491, 0.1084718182682991, 0.04288018122315407, -0.15967008471488953, 0.08932895958423615, -0.20904745161533356, -0.3508138358592987, -0.01504635438323021, -0.5249573588371277, 0.04161457344889641, 0.06461210548877716, 0.4011756181716919, -0.18680907785892487, 0.029055485501885414, 0.3086085319519043, 0.03947142884135246, 0.18451660871505737, 0.12875035405158997, -0.10105868428945541, 0.23812544345855713, 0.27078336477279663, -0.0002903289860114455, 0.12036187946796417, 0.12411317229270935, 0.31873440742492676, 0.07984413206577301, 0.1611095666885376, 0.03712133318185806, 0.007953689433634281, -0.30537810921669006, 0.19631746411323547, 0.16132020950317383, 0.06096189096570015, 0.2720716893672943, -0.03088337928056717, -0.024179421365261078, -0.4864819645881653, -0.07578205317258835, -0.3837043046951294, 0.061109352856874466, -0.021621474996209145, -0.12246324867010117, -0.15093295276165009, 0.019175134599208832, 0.30023711919784546, 0.21464155614376068, 0.013086934573948383, 0.03627283498644829, -0.008449719287455082, 0.26837965846061707, 0.04654315486550331, -0.07612831145524979, 0.03392373397946358, -0.05421251058578491, -0.25164124369621277, -0.14023517072200775, 0.26623544096946716, -0.163461834192276, -0.2968898117542267, 0.1935126781463623, -0.25097575783729553, -0.10773617029190063, 0.054906100034713745, -0.16052184998989105, -0.36623823642730713, -0.08272475749254227, -0.015883805230259895, -0.0902179405093193, 0.3573748767375946, -0.10469050705432892, -0.08134156465530396, -0.18560315668582916, -0.3310251235961914, 0.03617091849446297, 0.07170110195875168, 0.007097713183611631, -0.26497897505760193, -0.18802247941493988, 0.16307121515274048, 0.10932303220033646, -0.12122972309589386, -0.020652737468481064, 0.08817021548748016, 0.033128660172224045, -0.19685228168964386, 0.10947588086128235, -0.06212294474244118, 0.24944284558296204, 0.003007611259818077, 0.12885862588882446, 0.08627859503030777, 0.37944096326828003, 0.4339834451675415, -0.10046087205410004, -0.21746142208576202, 0.14187707006931305, 0.09837053716182709, 0.2804221212863922, -0.2501937448978424, 0.43061742186546326, -0.06394273787736893, 0.39001762866973877], [0.009553153067827225, -0.16024506092071533, 0.14282825589179993, 0.008924105204641819, -0.33711689710617065, -0.08282402157783508, 0.3727182149887085, -0.010476900264620781, 0.03438105806708336, -0.07176795601844788, -0.07477307319641113, 0.07967303693294525, -0.16583625972270966, 0.035760439932346344, -0.033143915235996246, 0.07585056871175766, -0.3469045162200928, -0.009778310544788837, -0.23380954563617706, 0.08361663669347763, -0.25614848732948303, -0.23894904553890228, 0.0664898082613945, 0.0461973175406456, 0.20328490436077118, 0.5669528245925903, 0.0737471804022789, -0.2558978199958801, -0.14235056936740875, -0.05308925732970238, -0.12833593785762787, -0.13944056630134583, -0.15903033316135406, 0.10050582885742188, -0.028239192441105843, -0.25173091888427734, 0.02694467082619667, -0.13140128552913666, -0.21735192835330963, -0.06356549263000488, -0.02727040834724903, -0.12712982296943665, -0.21116554737091064, 0.054959818720817566, -0.034844912588596344, 0.168662890791893, -0.011255896650254726, -0.17117196321487427, -0.04185952991247177, -0.19182099401950836, -0.19250793755054474, 0.02690531127154827, 0.14763528108596802, -0.24580493569374084, -0.21162933111190796, -0.2339261770248413, -0.0645049586892128, 0.22975201904773712, -0.07694841176271439, -0.07498215138912201, 0.06628540903329849, -0.08059503138065338, 0.10708614438772202, -0.013414702378213406, 0.09039726108312607, 0.5244327783584595, 0.14065034687519073, -0.11194216459989548, -0.00194446905516088, -0.011480551213026047, -0.22522801160812378, -0.18842098116874695, -0.06945149600505829, -0.06254038214683533, 0.2656024098396301, 0.4107837378978729, 0.2013198733329773, -0.028721217066049576, -0.2747402489185333, -0.26069188117980957, 0.0559735931456089, -0.0832880362868309, 0.009297581389546394, -0.2506069242954254, -0.24995557963848114, -0.12381619960069656, -0.10258384793996811, -0.20328831672668457, 0.012184455059468746, -0.18147137761116028, -0.23384274542331696, -0.12115155905485153, -0.2629036009311676, 0.028487704694271088, 0.1261015236377716, -0.1219010129570961, 0.07191774249076843, -0.28877022862434387, 0.10395854711532593, -0.28843337297439575, 0.1631474494934082, 0.32560062408447266, 0.15880975127220154, -0.13266293704509735, -0.2251109480857849, -0.230577290058136, 0.2595195770263672, 0.10215889662504196, -0.05982763692736626, -0.41173815727233887, 0.269125372171402, -0.34611308574676514, -0.07884940505027771, 0.004704994615167379, 0.2875332832336426, -0.2514914870262146, 0.048742420971393585, 0.12622343003749847, -0.24034565687179565, -0.05909828469157219, 0.2983585000038147, 0.0844726711511612, 0.2788432538509369, -0.11601091921329498, -0.23313291370868683, 0.18055468797683716, -0.13023672997951508, 0.10126528143882751], [0.4154682755470276, -0.026700418442487717, 0.11158458888530731, -0.03855136036872864, -0.3868448734283447, -0.15423285961151123, -0.5394041538238525, -0.011738616041839123, 0.19967974722385406, -0.10632220655679703, 0.37328189611434937, 0.19506008923053741, -0.2333158254623413, 0.6838676929473877, -0.34870603680610657, -0.05056048557162285, -0.08357781916856766, 0.009424485266208649, -0.04509609937667847, 0.6421441435813904, 0.19841183722019196, 0.4356969892978668, -0.2616467773914337, -0.041574832051992416, 0.2891331613063812, 0.08192674815654755, 0.298648864030838, -0.5891756415367126, 0.6142210364341736, 0.743500828742981, 0.15262092649936676, 0.46662163734436035, -0.3444647490978241, -0.1462368220090866, 0.23258428275585175, 0.34932637214660645, 0.032635193318128586, 0.40861234068870544, 0.767538845539093, -0.33300626277923584, -0.40189141035079956, 0.3921673595905304, 0.35031983256340027, -0.5441097617149353, -0.6453070044517517, -0.25472569465637207, -0.08657931536436081, 0.45186343789100647, 0.22061662375926971, -0.3437466025352478, 0.399355411529541, -0.4457017779350281, -0.43387916684150696, -0.24705377221107483, -0.5083125829696655, -0.16852539777755737, -0.3760184049606323, -0.5300207734107971, 0.35775572061538696, 0.08756031841039658, -0.309846967458725, -0.06207837536931038, 0.3456421494483948, 0.12948481738567352, 0.47306790947914124, 0.1682397425174713, 0.26195505261421204, 0.38586270809173584, -0.08755915611982346, 0.2029663622379303, -0.14457198977470398, 0.266824871301651, 0.20588433742523193, -0.5558692216873169, 0.4286116063594818, 0.26737117767333984, -0.23456206917762756, 0.21221701800823212, 0.28427961468696594, -0.14067816734313965, 0.32803842425346375, 0.6463249325752258, 0.3039277195930481, -0.2965325713157654, -0.11215943098068237, 0.09323016554117203, 0.009423318319022655, -0.5669933557510376, 0.41688302159309387, 0.07075671851634979, 0.26857268810272217, -0.1989651471376419, -0.13224421441555023, 0.7730498313903809, 0.013805895112454891, 0.37022262811660767, -0.17363372445106506, -0.27650782465934753, 0.36338308453559875, -0.4977854788303375, -0.006476645823568106, 0.08592623472213745, -0.08549688756465912, -0.24015048146247864, -0.42956599593162537, 0.18838383257389069, 0.5823730230331421, -0.40552252531051636, -0.01712605729699135, -0.1996125876903534, 0.3210999071598053, -0.21944181621074677, -0.12466712296009064, -0.5334173440933228, -0.2339954376220703, 0.2125018835067749, 0.04035330191254616, -0.4392544627189636, 0.08213572949171066, 0.13730300962924957, 0.4116586744785309, 0.03362082690000534, 0.025487039238214493, 0.28989559412002563, 0.17633605003356934, 0.17177604138851166, -0.30252930521965027, 0.3533652424812317], [-0.015599292702972889, -0.32377544045448303, 0.14221440255641937, -0.09777549654245377, -0.14540207386016846, -0.06539861112833023, -0.012362221255898476, 0.12189073115587234, 0.2546379864215851, -0.24048571288585663, -0.1073198989033699, -0.08141308277845383, -0.0408102348446846, 0.4194132685661316, -0.08314529061317444, -0.3821280002593994, 0.015936369076371193, 0.15505456924438477, -0.04716802015900612, 0.2097429782152176, -0.10763397067785263, 0.19806073606014252, -0.05674154311418533, -0.0992622971534729, -0.18478327989578247, -0.06939222663640976, 0.03576410934329033, 0.04614178091287613, -0.0398242250084877, -0.2760215401649475, -0.06423715502023697, -0.1713993400335312, -0.15079592168331146, 0.08557427674531937, -0.3396718204021454, 0.017766311764717102, -0.049271658062934875, 0.21639662981033325, -0.1135774552822113, -0.025364099070429802, -0.05071169510483742, 0.11787007004022598, 0.592538058757782, -0.11040034890174866, 0.14076052606105804, 0.2823377847671509, 0.43394988775253296, 0.43604400753974915, -0.015297460369765759, -0.03920179605484009, 0.2915954291820526, 0.07905025780200958, 0.06041133776307106, 0.009086552076041698, 0.0897078588604927, 0.24025177955627441, -0.08487939834594727, 0.09920012205839157, -0.021634457632899284, 0.14812591671943665, -0.06378000229597092, -0.002320111496374011, -0.020478760823607445, -0.15515677630901337, -0.3945803642272949, 0.040311846882104874, 0.3269313871860504, -0.06385896354913712, 0.053997933864593506, 0.08954178541898727, -0.03689935803413391, -0.12311902642250061, -0.22056545317173004, 0.16309592127799988, 0.24677389860153198, 0.015143328346312046, 0.08232584595680237, -0.03095341846346855, 0.21123246848583221, 0.14753054082393646, 0.047336146235466, -0.08168899267911911, 0.2666388154029846, -0.047608908265829086, 0.03476915881037712, -0.10991184413433075, 0.019302774220705032, 0.04274916648864746, 0.03795493766665459, -0.14643697440624237, 0.17021015286445618, -0.010668696835637093, 0.15157435834407806, -0.3382173478603363, -0.16926085948944092, 0.001488837762735784, -0.07060078531503677, -0.35235852003097534, -0.313795804977417, 0.11126966774463654, 0.2289966344833374, 0.09468700736761093, -0.5013278126716614, -0.006643334403634071, -0.1280340850353241, -0.1981901228427887, 0.062143269926309586, -0.043419480323791504, -0.1583833396434784, -0.11517778038978577, -0.40044206380844116, 0.18432524800300598, 0.08693304657936096, -0.11583753675222397, -0.05236230418086052, 0.2630051076412201, 0.1177511140704155, -0.10215998440980911, 0.17315547168254852, -0.19543711841106415, -0.036302193999290466, -0.07332824170589447, -0.3203929662704468, 0.3015539050102234, -0.476024866104126, 0.5247617363929749, -0.07971332967281342, 0.05596371740102768], [0.0864170491695404, -0.09752610325813293, 0.30419105291366577, -0.018855562433600426, -0.11396399140357971, -0.029047859832644463, 0.01416646409779787, 0.03832213953137398, -0.13881972432136536, -0.0008597151609137654, -0.22342312335968018, 0.1584509015083313, 0.0616743303835392, 0.17634126543998718, -0.09684529155492783, -0.11423599720001221, 0.013090211898088455, 0.04399733990430832, -0.34466278553009033, 0.04791240766644478, -0.18530264496803284, -0.015864292159676552, -0.14027036726474762, 0.006457068491727114, 0.08303850144147873, -0.03974366560578346, 0.06512942165136337, -0.140056774020195, 0.03129544481635094, -0.18319417536258698, -0.002754759741947055, -0.14369666576385498, -0.06357797235250473, 0.17002780735492706, 0.012901374138891697, -0.25314566493034363, -0.019528092816472054, -0.06334496289491653, -0.23790423572063446, -0.04847404360771179, 0.10306722670793533, -0.17295826971530914, -0.2437446564435959, 0.00038026447873562574, -0.0018773438641801476, -0.18274082243442535, -0.14001283049583435, -0.26914724707603455, 0.091814786195755, 0.20415107905864716, -0.2047460675239563, -0.08732675760984421, 0.007963784970343113, -0.05678590387105942, 0.01245308481156826, 0.1542404741048813, 0.09054078906774521, 0.05683650076389313, -0.08889120817184448, -0.22738346457481384, 0.07770317047834396, -0.06245107203722, 0.04788617789745331, -0.06413394212722778, -0.2062196582555771, 0.5573070049285889, -0.26262199878692627, 0.009588656947016716, 0.13988825678825378, 0.10697486251592636, -0.016088949516415596, -0.06900206208229065, 0.12828530371189117, 0.0016860103933140635, 0.22794894874095917, 0.251219242811203, 0.2765848636627197, -0.05165407434105873, -0.15185986459255219, 0.007668619509786367, 0.04002458602190018, -0.15218517184257507, 0.06514204293489456, 0.09743427485227585, 0.03915765509009361, 0.04298071190714836, 0.10497766733169556, -0.05651314929127693, -0.05876900255680084, -0.2333698868751526, 0.20411621034145355, 0.10722056776285172, -0.1842004656791687, -0.2548367977142334, 0.04868445545434952, -0.1760229766368866, 0.11665289103984833, -0.2540057301521301, -0.12133634090423584, 0.34307625889778137, 0.23669809103012085, 0.12087217718362808, 0.1087653860449791, 0.0035914345644414425, 0.07487516105175018, -0.1174764484167099, 0.13459813594818115, 0.0698777437210083, 0.016965854912996292, -0.06142029911279678, 0.21404299139976501, -0.21393637359142303, -0.059429530054330826, -0.20656733214855194, -0.009844054467976093, -0.12213435769081116, -0.08335933089256287, -0.15919336676597595, -0.27406537532806396, -0.07469137012958527, -0.006326365750283003, -0.169642373919487, 0.2733750641345978, -0.053054630756378174, -0.16735535860061646, 0.07229620963335037, -0.11212139576673508, -0.0013025150401517749], [-0.042339228093624115, -0.37553924322128296, -0.1118440330028534, 0.018097050487995148, 0.231978639960289, -0.014290356077253819, -0.0959918424487114, -0.20543548464775085, 0.22708921134471893, 0.16234663128852844, 0.5456644296646118, -0.1902962476015091, 0.041395775973796844, 0.36384961009025574, 0.06830194592475891, -0.027914345264434814, -0.19964848458766937, -0.2531541883945465, -0.08842878043651581, -0.06570613384246826, 0.3109089136123657, 0.16041944921016693, -0.021118536591529846, -0.2111511528491974, -0.06878632307052612, -0.02605842426419258, 0.2756245732307434, 0.13544398546218872, 0.058704666793346405, 0.26320692896842957, 0.14961758255958557, 0.2171834111213684, -0.3329518735408783, -0.35967811942100525, 0.09426384419202805, 0.07826215028762817, -0.00862145982682705, 0.34549546241760254, 0.10103443264961243, -0.4660698473453522, 0.3321421146392822, -0.07110193371772766, 0.04653073102235794, -0.17472991347312927, -0.012931685894727707, -0.29717710614204407, -0.292942076921463, 0.23328056931495667, 0.24439406394958496, 0.13862498104572296, -0.06852544099092484, -0.3568904399871826, 0.09984749555587769, 0.29544204473495483, -0.3582857549190521, -0.22555536031723022, -0.038897864520549774, -0.35728445649147034, 0.0652855783700943, -0.3225286304950714, 0.11941199004650116, -0.0382380411028862, -0.04810004681348801, 0.050308555364608765, 0.04222065955400467, -0.4209417998790741, -0.06810877472162247, 0.037682510912418365, 0.32176077365875244, 0.1417149007320404, -0.05087120831012726, -0.2573390305042267, 0.12795329093933105, -0.3247218430042267, -0.3817448616027832, 0.2273961901664734, -0.24038922786712646, 0.15150490403175354, 0.20555245876312256, 0.32985982298851013, -0.1411394476890564, -0.03166303411126137, -0.12397409975528717, -0.18108871579170227, -0.02089848928153515, 0.117011658847332, -0.01450345665216446, -0.14273329079151154, -0.2434554249048233, 0.16230596601963043, 0.17751489579677582, 0.08307743817567825, 0.3360581398010254, 0.06611135601997375, -0.08438464999198914, 0.23758511245250702, -0.20657579600811005, 0.2553229331970215, -0.14536939561367035, -0.24786800146102905, -0.22230315208435059, 0.22520174086093903, 0.2392999678850174, 0.08219607174396515, 0.23555399477481842, -0.3305034041404724, -0.10794783383607864, 0.3905564546585083, -0.1778309941291809, -0.032588258385658264, -0.24852102994918823, 0.15682370960712433, -0.25617751479148865, -0.4432734251022339, -0.6274914741516113, 0.03476269543170929, 0.01553697232156992, -0.19129760563373566, -0.13868694007396698, 0.24039053916931152, -0.30473142862319946, -0.1794447898864746, -0.124393031001091, -0.21254630386829376, -0.12892216444015503, 0.11731044203042984, 0.3080059289932251, 0.12556339800357819], [0.040639810264110565, 0.08727864176034927, 0.11266811937093735, 0.02101200819015503, -0.17944473028182983, -0.3683663010597229, -0.1526717096567154, 0.017395012080669403, 0.33860769867897034, 0.3207539916038513, -0.44336482882499695, -0.04970959201455116, -0.1909293383359909, 0.4741238057613373, -0.1809624433517456, -0.25530940294265747, 0.07049840688705444, -0.0546870157122612, 0.13779674470424652, -0.05873962864279747, -0.2904191017150879, 0.15590253472328186, -0.11468631774187088, -0.19084559381008148, 0.18642346560955048, 0.2508081793785095, -0.09257110208272934, -0.14535947144031525, -0.14867039024829865, -0.10168533772230148, -0.424893319606781, 0.0759415403008461, 0.3129142224788666, -0.03219979628920555, -0.08879753202199936, 0.04963291063904762, -0.08278656005859375, 0.3947451114654541, 0.002346392022445798, -0.01311738695949316, 0.1742774099111557, -0.009679192677140236, 0.02912135422229767, -0.2042997032403946, 0.14068558812141418, 0.3477380871772766, -0.028884761035442352, 0.5766417384147644, -0.04853541776537895, -0.03743861988186836, -0.08280817419290543, 0.2105020433664322, -0.03849699720740318, 0.014174497686326504, -0.18270739912986755, 0.36438360810279846, -0.055381208658218384, 0.03531913459300995, -0.056842904537916183, -0.21104173362255096, 0.2209797352552414, -0.18423788249492645, 0.3976844549179077, 0.05543620511889458, -0.267803817987442, 0.12775112688541412, 0.3407938480377197, -0.21831437945365906, -0.3265018165111542, 0.5566815733909607, 0.19203932583332062, -0.07405515015125275, -0.17268860340118408, -0.1380341351032257, -0.13463325798511505, 0.010413559153676033, -0.11353407055139542, 0.30316832661628723, 0.1884841024875641, -0.16599486768245697, 0.27554696798324585, 0.09933072328567505, -0.29265516996383667, 0.011856582947075367, 0.1840451955795288, 0.12939192354679108, -0.06889583170413971, 0.1493876874446869, 0.08066438883543015, 0.05098558962345123, 0.0632346048951149, 0.07737784087657928, 0.1885102093219757, -0.1719512939453125, -0.27929502725601196, 0.22021573781967163, -0.06493514031171799, -0.158853217959404, 0.07686951011419296, 0.1631973385810852, 0.36149632930755615, 0.13254491984844208, -0.7689024209976196, 0.30260467529296875, -0.5463184714317322, 0.12831351161003113, -0.06934014707803726, -0.15735486149787903, 0.05994457006454468, 0.1723693162202835, -0.2955881655216217, -0.03973058611154556, 0.04668626934289932, 0.1027088612318039, 0.036061156541109085, -0.05147511884570122, -0.02374900132417679, -0.3344353139400482, 0.16529081761837006, 0.0952412337064743, 0.2713125944137573, -0.35591819882392883, -0.08956010639667511, -0.07781220227479935, 0.04559880867600441, 0.3807765245437622, -0.013869529590010643, -0.08075259625911713], [-0.005760607775300741, 0.23253725469112396, 0.14276932179927826, 0.025072874501347542, -0.32871222496032715, -0.18696554005146027, -0.0013845909852534533, -0.1785830557346344, -0.4950222969055176, -0.09156182408332825, -0.13769260048866272, -0.031133217737078667, 0.1966084986925125, 0.17179261147975922, -0.2811790704727173, -0.04621629789471626, -0.18242622911930084, -0.1729474514722824, 0.010726134292781353, -0.2561105787754059, -0.4190230369567871, -0.020414283499121666, -0.04868495464324951, 0.12962037324905396, 0.041148170828819275, -0.06461568176746368, -0.1691068857908249, -0.0372496023774147, -0.09122129529714584, -0.22806715965270996, 0.02381550334393978, 0.014392897486686707, 0.22531527280807495, 0.17773553729057312, 0.12141864746809006, -0.25931185483932495, -0.0880012959241867, -0.10430896282196045, -0.2833193242549896, 0.0571463406085968, -0.13754898309707642, -0.25613313913345337, 0.14788350462913513, 0.23725596070289612, -0.2565314769744873, -0.3627183139324188, -0.15379692614078522, -0.3864632248878479, -0.1720530390739441, -0.06196555867791176, -0.065904401242733, 0.12970536947250366, 0.13978245854377747, 0.10317979753017426, 0.2106872797012329, -0.0027603679336607456, -0.06771218776702881, -0.033183712512254715, -0.20219215750694275, -0.2564816474914551, -0.08254644274711609, 0.19786424934864044, -0.025636469945311546, -0.05664019659161568, -0.08824116736650467, -0.2706611752510071, -0.24795423448085785, -0.5066516995429993, -0.3287191689014435, 0.1762622892856598, -0.1564856469631195, 0.15331031382083893, -0.07186312228441238, 0.02730335295200348, -0.10806247591972351, 0.0629817396402359, -0.4015548527240753, 0.1106814593076706, -0.09296242147684097, -0.024768957868218422, 0.11614196747541428, 0.3223375678062439, -0.05292300134897232, -0.10002630949020386, -0.027131712064146996, 0.13688869774341583, 0.03206636384129524, -0.17252539098262787, 0.31550103425979614, -0.048541177064180374, -0.07068176567554474, -0.14326557517051697, -0.19097915291786194, 0.22214265167713165, 0.0006521866889670491, 0.18476596474647522, 0.09680469334125519, 0.07741663604974747, 0.0541459359228611, 0.18357667326927185, 0.42193764448165894, 0.31482988595962524, 0.2831953465938568, -0.09379535168409348, -0.054525915533304214, 0.0010976199992001057, -0.05829215422272682, -0.1161467432975769, 0.09821994602680206, 0.26093488931655884, 0.2927243113517761, -0.28568631410598755, 0.38406917452812195, -0.13986140489578247, -0.06741899996995926, -0.27765554189682007, 0.162714421749115, 0.12537424266338348, 0.12194537371397018, -0.0032911559101194143, -0.326386421918869, 0.17466945946216583, 0.20912659168243408, -0.0036175649147480726, -0.0469512939453125, -0.14821384847164154, -0.3066162168979645, -0.04735315591096878], [-0.1944059580564499, -0.10740151256322861, 0.0027885749004781246, 0.16649208962917328, 0.06500887125730515, 0.06673117727041245, -0.09454701840877533, -0.1638965904712677, 0.21447636187076569, 0.04572247713804245, 0.1362035572528839, -0.09494248032569885, 0.20393770933151245, 0.30091673135757446, 0.18086117506027222, 0.0385274663567543, -0.030205244198441505, -0.10709768533706665, -0.024214837700128555, -0.1403619796037674, -0.04221859946846962, 0.24139665067195892, -0.05934107303619385, -0.5460309386253357, -0.07941834628582001, -0.09672550857067108, 0.16982649266719818, 0.18025867640972137, -0.23206916451454163, 0.12260262668132782, -0.19241963326931, -0.2718387246131897, -0.2962914705276489, -0.008843068964779377, 0.13761664927005768, -0.008989929221570492, -0.23737438023090363, 0.1039198711514473, 0.013787370175123215, -0.21567566692829132, 0.23132550716400146, -0.19736896455287933, 0.17939481139183044, -0.1442517787218094, 0.3294042944908142, -0.052698805928230286, 0.19363181293010712, 0.2404543161392212, -0.11042895168066025, -0.09567921608686447, -0.012617146596312523, -0.1608746200799942, 0.044354088604450226, 0.004536761902272701, 0.15204951167106628, 0.039788078516721725, -0.08564963191747665, -0.06940540671348572, -0.11198461800813675, -0.28999921679496765, -0.19780977070331573, 0.005727638024836779, -0.22780431807041168, -0.16838254034519196, 0.06847340613603592, -0.13555572926998138, -0.24540410935878754, -0.10961472243070602, 0.13076935708522797, 0.1250106543302536, 0.17282715439796448, -0.2648501396179199, 0.14306321740150452, 0.004679279867559671, -0.22567373514175415, -0.18256665766239166, -0.04320837929844856, 0.04254899173974991, -0.0982930138707161, 0.06543299555778503, -0.10992681980133057, -0.27606162428855896, 0.006975899916142225, -0.15249785780906677, -0.03097006119787693, 0.10496541112661362, -0.2555384337902069, -0.08778900653123856, -0.13291120529174805, 0.2501410245895386, 0.021491099148988724, 0.19135497510433197, 0.06828298419713974, -0.01211530901491642, 0.0507136732339859, 0.2412094622850418, -0.03850986808538437, 0.07869730144739151, 0.014910995960235596, -0.021065963432192802, -0.13192220032215118, 0.06650303304195404, 0.21841800212860107, 0.3424898087978363, 0.15451504290103912, 0.15190976858139038, -0.2805306315422058, 0.06118400767445564, 0.26663821935653687, -0.00011123938020318747, -0.4472320079803467, -0.016515091061592102, -0.2202688753604889, -0.14127928018569946, -0.24553561210632324, -0.029551705345511436, 0.07156670838594437, 0.026428747922182083, -0.034469395875930786, -0.003863799385726452, -0.27053025364875793, -0.0995430052280426, -0.10577906668186188, -0.13496893644332886, 0.20132026076316833, 0.24346213042736053, 0.26266998052597046, -0.061081789433956146], [0.19086559116840363, 0.09406465291976929, 0.049255430698394775, -0.14671844244003296, -0.27589139342308044, -0.36695075035095215, -0.3650588393211365, -0.2168038785457611, 0.5526149272918701, 0.4951111376285553, -0.44043493270874023, 0.07478324323892593, 0.10697171837091446, 0.4533692002296448, 